<?xml version="1.0" encoding="UTF-8"?>
<PMML version="2.1" xmlns="http://www.dmg.org/PMML-2_1"
	xmlns:xsi="http://www.w3.org/2001/XMLSchema-instance">
	<DataDictionary numberOfFields="5">
		<DataField name="sepal length" optype="continuous"
			dataType="double">
			<Interval closure="openOpen" leftMargin="4.3"
				rightMargin="7.9" />
		</DataField>
		<DataField name="sepal width" optype="continuous"
			dataType="double">
			<Interval closure="openOpen" leftMargin="2.0"
				rightMargin="4.4" />
		</DataField>
		<DataField name="petal length" optype="continuous"
			dataType="double">
			<Interval closure="openOpen" leftMargin="1.0"
				rightMargin="6.9" />
		</DataField>
		<DataField name="petal width" optype="continuous"
			dataType="double">
			<Interval closure="openOpen" leftMargin="0.1"
				rightMargin="2.5" />
		</DataField>
		<DataField name="class" optype="categorical"
			dataType="string">
			<Value value="Iris-setosa" />
			<Value value="Iris-versicolor" />
			<Value value="Iris-virginica" />
		</DataField>
	</DataDictionary>
	<ClusteringModel modelName="k-means" functionName="clustering"
		modelClass="centerBased" numberOfClusters="3">
		<MiningSchema>
			<MiningField name="sepal length" />
			<MiningField name="sepal width" />
			<MiningField name="petal length" />
			<MiningField name="petal width" />
		</MiningSchema>
		<ComparisonMeasure kind="distance">
			<squaredEuclidean />
		</ComparisonMeasure>
		<ClusteringField field="sepal length" compareFunction="absDiff" />
		<ClusteringField field="sepal width" compareFunction="absDiff" />
		<ClusteringField field="petal length" compareFunction="absDiff" />
		<ClusteringField field="petal width" compareFunction="absDiff" />
		<CenterFields>
			<DerivedField name="normalized-sepal length">
				<NormContinuous field="sepal length">
					<LinearNorm orig="4.3" norm="0" />
					<LinearNorm orig="7.9" norm="1" />
				</NormContinuous>
			</DerivedField>
			<DerivedField name="normalized-sepal width">
				<NormContinuous field="sepal width">
					<LinearNorm orig="2.0" norm="0" />
					<LinearNorm orig="4.4" norm="1" />
				</NormContinuous>
			</DerivedField>
			<DerivedField name="normalized-petal length">
				<NormContinuous field="petal length">
					<LinearNorm orig="1.0" norm="0" />
					<LinearNorm orig="6.9" norm="1" />
				</NormContinuous>
			</DerivedField>
			<DerivedField name="normalized-petal width">
				<NormContinuous field="petal width">
					<LinearNorm orig="0.1" norm="0" />
					<LinearNorm orig="2.5" norm="1" />
				</NormContinuous>
			</DerivedField>
		</CenterFields>
		<Cluster name="cluster_0">
			<Array n="4" type="real">
				6.853846153846153 3.0769230769230766 5.715384615384615
				2.053846153846153
			</Array>
		</Cluster>
		<Cluster name="cluster_1">
			<Array n="4" type="real">
				5.88360655737705 2.740983606557377 4.388524590163935
				1.4344262295081966
			</Array>
		</Cluster>
		<Cluster name="cluster_2">
			<Array n="4" type="real">
				5.005999999999999 3.428000000000001 1.4620000000000002
				0.2459999999999999
			</Array>
		</Cluster>
	</ClusteringModel>
</PMML>
