<?xml version="1.0" encoding="UTF-8" ?>
<PMML version="3.1">
 <Header copyright="Copyright IBM Corp. 2002, 2005 All Rights Reserved">
  <Application name="IBM DB2 Intelligent Miner" version="9.1"/>
  <Timestamp>2006-03-21 14:02:43</Timestamp>
  </Header>
 <MiningBuildTask>
  <Extension name="DM_ruleBldTask">&lt;?xml version="1.0" encoding="UTF-8" ?>
&lt;DataMining>&lt;MiningTask trainData="trainData">&lt;MiningData name="trainData" tableName="RASPL.INPUT_036">&lt;Column alias="cardid" name="cardid" sqlType="INTEGER"/>&lt;Column alias="Product" name="Product" sqlType="CHAR"/>&lt;/MiningData>&lt;MiningSettings>&lt;LogicalDataSpec>&lt;MiningField name="cardid" type="categorical"/>&lt;MiningField name="Product" type="categorical"/>&lt;/LogicalDataSpec>&lt;RuleSettings>&lt;RuleFilter>&lt;RangeConstraint lowerBound="2" restrictionCriterion="support"/>&lt;RangeConstraint lowerBound="25" restrictionCriterion="confidence"/>&lt;RangeConstraint upperBound="2.1" restrictionCriterion="nbOfItems"/>&lt;/RuleFilter>&lt;/RuleSettings>&lt;FieldUsageEntry field="cardid" usageType="group"/>&lt;FieldUsageEntry field="Product" usageType="item"/>&lt;/MiningSettings>&lt;TaskControl errorTable="IDMMX.ERRORTABLE" progressTable="IDMMX.PROGRESSTABLE"/>&lt;/MiningTask>&lt;/DataMining></Extension>
  </MiningBuildTask>
 <DataDictionary numberOfFields="2">
  <DataField name="cardid" displayName="cardid" optype="categorical"/>
  <DataField name="Product" displayName="Product" optype="categorical"/>
  </DataDictionary>
 <AssociationModel modelName="dmg.association rules model" functionName="associationRules" algorithmName="SIDFAS" numberOfTransactions="939" maxNumberOfItemsPerTA="8" avgNumberOfItemsPerTA="2.97976570820021" minimumSupport="0.02" minimumConfidence="0.25" lengthLimit="2" numberOfItems="11" numberOfItemsets="55" numberOfRules="61" x-quality="1">
  <MiningSchema>
   <MiningField name="cardid" usageType="group"/>
   <MiningField name="Product"/>
   </MiningSchema>
  <Item id="1" value="frozenmeal"/>
  <Item id="2" value="cannedveg"/>
  <Item id="3" value="fish"/>
  <Item id="4" value="beer"/>
  <Item id="5" value="fruitveg"/>
  <Item id="6" value="wine"/>
  <Item id="7" value="confectionery"/>
  <Item id="8" value="cannedmeat"/>
  <Item id="9" value="freshmeat"/>
  <Item id="10" value="dairy"/>
  <Item id="11" value="softdrink"/>
  <Itemset id="1" support="0.321618743343983" lift="1" numberOfItems="1">
   <ItemRef itemRef="1"/>
   </Itemset>
  <Itemset id="2" support="0.184238551650692" lift="1.77526063864665" numberOfItems="2">
   <ItemRef itemRef="1"/>
   <ItemRef itemRef="2"/>
   </Itemset>
  <Itemset id="3" support="0.0958466453674121" lift="0.958337113308536" numberOfItems="2">
   <ItemRef itemRef="1"/>
   <ItemRef itemRef="3"/>
   </Itemset>
  <Itemset id="4" support="0.181043663471778" lift="1.80401419433583" numberOfItems="2">
   <ItemRef itemRef="1"/>
   <ItemRef itemRef="4"/>
   </Itemset>
  <Itemset id="5" support="0.0915867944621938" lift="0.894305521716981" numberOfItems="2">
   <ItemRef itemRef="1"/>
   <ItemRef itemRef="5"/>
   </Itemset>
  <Itemset id="6" support="0.322683706070288" lift="1" numberOfItems="1">
   <ItemRef itemRef="2"/>
   </Itemset>
  <Itemset id="7" support="0.0947816826411076" lift="0.944561236945612" numberOfItems="2">
   <ItemRef itemRef="2"/>
   <ItemRef itemRef="3"/>
   </Itemset>
  <Itemset id="8" support="0.103301384451544" lift="1.05106279858755" numberOfItems="2">
   <ItemRef itemRef="2"/>
   <ItemRef itemRef="6"/>
   </Itemset>
  <Itemset id="9" support="0.177848775292865" lift="1.76632987530835" numberOfItems="2">
   <ItemRef itemRef="2"/>
   <ItemRef itemRef="4"/>
   </Itemset>
  <Itemset id="10" support="0.0915867944621938" lift="0.891354018344978" numberOfItems="2">
   <ItemRef itemRef="2"/>
   <ItemRef itemRef="5"/>
   </Itemset>
  <Itemset id="11" support="0.293929712460064" lift="1" numberOfItems="1">
   <ItemRef itemRef="7"/>
   </Itemset>
  <Itemset id="12" support="0.0756123535676251" lift="0.79720906873296" numberOfItems="2">
   <ItemRef itemRef="7"/>
   <ItemRef itemRef="2"/>
   </Itemset>
  <Itemset id="13" support="0.0915867944621938" lift="1.00201012507445" numberOfItems="2">
   <ItemRef itemRef="7"/>
   <ItemRef itemRef="3"/>
   </Itemset>
  <Itemset id="14" support="0.153354632587859" lift="1.71298266950441" numberOfItems="2">
   <ItemRef itemRef="7"/>
   <ItemRef itemRef="6"/>
   </Itemset>
  <Itemset id="15" support="0.0883919062832801" lift="0.9444161698415" numberOfItems="2">
   <ItemRef itemRef="7"/>
   <ItemRef itemRef="5"/>
   </Itemset>
  <Itemset id="16" support="0.310969116080937" lift="1" numberOfItems="1">
   <ItemRef itemRef="3"/>
   </Itemset>
  <Itemset id="17" support="0.0830670926517572" lift="0.877023661270236" numberOfItems="2">
   <ItemRef itemRef="3"/>
   <ItemRef itemRef="6"/>
   </Itemset>
  <Itemset id="18" support="0.0905218317358893" lift="0.932897751180513" numberOfItems="2">
   <ItemRef itemRef="3"/>
   <ItemRef itemRef="4"/>
   </Itemset>
  <Itemset id="19" support="0.154419595314164" lift="1.55947908553626" numberOfItems="2">
   <ItemRef itemRef="3"/>
   <ItemRef itemRef="5"/>
   </Itemset>
  <Itemset id="20" support="0.217252396166134" lift="1" numberOfItems="1">
   <ItemRef itemRef="8"/>
   </Itemset>
  <Itemset id="21" support="0.0798722044728434" lift="1.14311453058044" numberOfItems="2">
   <ItemRef itemRef="8"/>
   <ItemRef itemRef="1"/>
   </Itemset>
  <Itemset id="22" support="0.0777422790202343" lift="1.1089594253543" numberOfItems="2">
   <ItemRef itemRef="8"/>
   <ItemRef itemRef="2"/>
   </Itemset>
  <Itemset id="23" support="0.0575079872204473" lift="0.900575447570332" numberOfItems="2">
   <ItemRef itemRef="8"/>
   <ItemRef itemRef="7"/>
   </Itemset>
  <Itemset id="24" support="0.0670926517571885" lift="0.993100322320709" numberOfItems="2">
   <ItemRef itemRef="8"/>
   <ItemRef itemRef="3"/>
   </Itemset>
  <Itemset id="25" support="0.0575079872204473" lift="0.869086795557384" numberOfItems="2">
   <ItemRef itemRef="8"/>
   <ItemRef itemRef="6"/>
   </Itemset>
  <Itemset id="26" support="0.0638977635782748" lift="0.942581810881349" numberOfItems="2">
   <ItemRef itemRef="8"/>
   <ItemRef itemRef="4"/>
   </Itemset>
  <Itemset id="27" support="0.0649627263045793" lift="0.939061577808381" numberOfItems="2">
   <ItemRef itemRef="8"/>
   <ItemRef itemRef="5"/>
   </Itemset>
  <Itemset id="28" support="0.193823216187433" lift="1" numberOfItems="1">
   <ItemRef itemRef="9"/>
   </Itemset>
  <Itemset id="29" support="0.0553780617678381" lift="0.888363292336802" numberOfItems="2">
   <ItemRef itemRef="9"/>
   <ItemRef itemRef="1"/>
   </Itemset>
  <Itemset id="30" support="0.0585729499467519" lift="0.936513981068436" numberOfItems="2">
   <ItemRef itemRef="9"/>
   <ItemRef itemRef="2"/>
   </Itemset>
  <Itemset id="31" support="0.0575079872204473" lift="1.00943621595795" numberOfItems="2">
   <ItemRef itemRef="9"/>
   <ItemRef itemRef="7"/>
   </Itemset>
  <Itemset id="32" support="0.0511182108626198" lift="0.848110793316273" numberOfItems="2">
   <ItemRef itemRef="9"/>
   <ItemRef itemRef="3"/>
   </Itemset>
  <Itemset id="33" support="0.0511182108626198" lift="0.865903327441789" numberOfItems="2">
   <ItemRef itemRef="9"/>
   <ItemRef itemRef="6"/>
   </Itemset>
  <Itemset id="34" support="0.0500532481363152" lift="0.82760754603758" numberOfItems="2">
   <ItemRef itemRef="9"/>
   <ItemRef itemRef="4"/>
   </Itemset>
  <Itemset id="35" support="0.0628328008519702" lift="1.01806387592341" numberOfItems="2">
   <ItemRef itemRef="9"/>
   <ItemRef itemRef="5"/>
   </Itemset>
  <Itemset id="36" support="0.30457933972311" lift="1" numberOfItems="1">
   <ItemRef itemRef="6"/>
   </Itemset>
  <Itemset id="37" support="0.0820021299254526" lift="0.862824888422158" numberOfItems="2">
   <ItemRef itemRef="6"/>
   <ItemRef itemRef="4"/>
   </Itemset>
  <Itemset id="38" support="0.0894568690095847" lift="0.922375283579297" numberOfItems="2">
   <ItemRef itemRef="6"/>
   <ItemRef itemRef="5"/>
   </Itemset>
  <Itemset id="39" support="0.312034078807242" lift="1" numberOfItems="1">
   <ItemRef itemRef="4"/>
   </Itemset>
  <Itemset id="40" support="0.0947816826411076" lift="0.953930621982262" numberOfItems="2">
   <ItemRef itemRef="4"/>
   <ItemRef itemRef="5"/>
   </Itemset>
  <Itemset id="41" support="0.188498402555911" lift="1" numberOfItems="1">
   <ItemRef itemRef="10"/>
   </Itemset>
  <Itemset id="42" support="0.0543130990415335" lift="0.895891794814233" numberOfItems="2">
   <ItemRef itemRef="10"/>
   <ItemRef itemRef="1"/>
   </Itemset>
  <Itemset id="43" support="0.0596379126730564" lift="1.07639400638664" numberOfItems="2">
   <ItemRef itemRef="10"/>
   <ItemRef itemRef="7"/>
   </Itemset>
  <Itemset id="44" support="0.0596379126730564" lift="1.017413512886" numberOfItems="2">
   <ItemRef itemRef="10"/>
   <ItemRef itemRef="3"/>
   </Itemset>
  <Itemset id="45" support="0.0489882854100106" lift="0.853265378689107" numberOfItems="2">
   <ItemRef itemRef="10"/>
   <ItemRef itemRef="6"/>
   </Itemset>
  <Itemset id="46" support="0.0479233226837061" lift="0.814774107710997" numberOfItems="2">
   <ItemRef itemRef="10"/>
   <ItemRef itemRef="4"/>
   </Itemset>
  <Itemset id="47" support="0.0660276890308839" lift="1.10005101751601" numberOfItems="2">
   <ItemRef itemRef="10"/>
   <ItemRef itemRef="5"/>
   </Itemset>
  <Itemset id="48" support="0.195953141640043" lift="1" numberOfItems="1">
   <ItemRef itemRef="11"/>
   </Itemset>
  <Itemset id="49" support="0.0575079872204473" lift="0.91250359919378" numberOfItems="2">
   <ItemRef itemRef="11"/>
   <ItemRef itemRef="1"/>
   </Itemset>
  <Itemset id="50" support="0.0670926517571885" lift="1.06107404218683" numberOfItems="2">
   <ItemRef itemRef="11"/>
   <ItemRef itemRef="2"/>
   </Itemset>
  <Itemset id="51" support="0.0553780617678381" lift="0.96148393194707" numberOfItems="2">
   <ItemRef itemRef="11"/>
   <ItemRef itemRef="7"/>
   </Itemset>
  <Itemset id="52" support="0.0553780617678381" lift="0.908799880881477" numberOfItems="2">
   <ItemRef itemRef="11"/>
   <ItemRef itemRef="3"/>
   </Itemset>
  <Itemset id="53" support="0.0638977635782748" lift="1.07061416844026" numberOfItems="2">
   <ItemRef itemRef="11"/>
   <ItemRef itemRef="6"/>
   </Itemset>
  <Itemset id="54" support="0.0596379126730564" lift="0.95579467791188" numberOfItems="2">
   <ItemRef itemRef="11"/>
   <ItemRef itemRef="5"/>
   </Itemset>
  <Itemset id="55" support="0.318423855165069" lift="1" numberOfItems="1">
   <ItemRef itemRef="5"/>
   </Itemset>
  <AssociationRule support="0.0479233226837061" confidence="0.254237288135593" lift="0.814774107710997" antecedent="41" consequent="39"/>
  <AssociationRule support="0.0489882854100106" confidence="0.259887005649718" lift="0.853265378689107" antecedent="41" consequent="36"/>
  <AssociationRule support="0.0500532481363152" confidence="0.258241758241758" lift="0.82760754603758" antecedent="28" consequent="39"/>
  <AssociationRule support="0.0511182108626198" confidence="0.263736263736264" lift="0.848110793316273" antecedent="28" consequent="16"/>
  <AssociationRule support="0.0511182108626198" confidence="0.263736263736264" lift="0.865903327441789" antecedent="28" consequent="36"/>
  <AssociationRule support="0.0543130990415335" confidence="0.288135593220339" lift="0.895891794814233" antecedent="41" consequent="1"/>
  <AssociationRule support="0.0553780617678381" confidence="0.282608695652174" lift="0.908799880881477" antecedent="48" consequent="16"/>
  <AssociationRule support="0.0553780617678381" confidence="0.282608695652174" lift="0.96148393194707" antecedent="48" consequent="11"/>
  <AssociationRule support="0.0553780617678381" confidence="0.285714285714286" lift="0.888363292336802" antecedent="28" consequent="1"/>
  <AssociationRule support="0.0575079872204473" confidence="0.264705882352941" lift="0.869086795557384" antecedent="20" consequent="36"/>
  <AssociationRule support="0.0575079872204473" confidence="0.293478260869565" lift="0.91250359919378" antecedent="48" consequent="1"/>
  <AssociationRule support="0.0575079872204473" confidence="0.296703296703297" lift="1.00943621595795" antecedent="28" consequent="11"/>
  <AssociationRule support="0.0575079872204473" confidence="0.264705882352941" lift="0.900575447570332" antecedent="20" consequent="11"/>
  <AssociationRule support="0.0585729499467519" confidence="0.302197802197802" lift="0.936513981068436" antecedent="28" consequent="6"/>
  <AssociationRule support="0.0596379126730564" confidence="0.31638418079096" lift="1.07639400638664" antecedent="41" consequent="11"/>
  <AssociationRule support="0.0596379126730564" confidence="0.304347826086956" lift="0.95579467791188" antecedent="48" consequent="55"/>
  <AssociationRule support="0.0596379126730564" confidence="0.31638418079096" lift="1.017413512886" antecedent="41" consequent="16"/>
  <AssociationRule support="0.0628328008519702" confidence="0.324175824175824" lift="1.01806387592341" antecedent="28" consequent="55"/>
  <AssociationRule support="0.0638977635782748" confidence="0.326086956521739" lift="1.07061416844026" antecedent="48" consequent="36"/>
  <AssociationRule support="0.0638977635782748" confidence="0.294117647058824" lift="0.942581810881349" antecedent="20" consequent="39"/>
  <AssociationRule support="0.0649627263045793" confidence="0.299019607843137" lift="0.939061577808381" antecedent="20" consequent="55"/>
  <AssociationRule support="0.0660276890308839" confidence="0.350282485875706" lift="1.10005101751601" antecedent="41" consequent="55"/>
  <AssociationRule support="0.0670926517571885" confidence="0.342391304347826" lift="1.06107404218683" antecedent="48" consequent="6"/>
  <AssociationRule support="0.0670926517571885" confidence="0.308823529411765" lift="0.993100322320709" antecedent="20" consequent="16"/>
  <AssociationRule support="0.0756123535676251" confidence="0.257246376811594" lift="0.79720906873296" antecedent="11" consequent="6"/>
  <AssociationRule support="0.0777422790202343" confidence="0.357843137254902" lift="1.1089594253543" antecedent="20" consequent="6"/>
  <AssociationRule support="0.0798722044728434" confidence="0.367647058823529" lift="1.14311453058044" antecedent="20" consequent="1"/>
  <AssociationRule support="0.0820021299254526" confidence="0.262798634812287" lift="0.862824888422158" antecedent="39" consequent="36"/>
  <AssociationRule support="0.0820021299254526" confidence="0.269230769230769" lift="0.862824888422158" antecedent="36" consequent="39"/>
  <AssociationRule support="0.0830670926517572" confidence="0.272727272727273" lift="0.877023661270236" antecedent="36" consequent="16"/>
  <AssociationRule support="0.0830670926517572" confidence="0.267123287671233" lift="0.877023661270236" antecedent="16" consequent="36"/>
  <AssociationRule support="0.0883919062832801" confidence="0.300724637681159" lift="0.9444161698415" antecedent="11" consequent="55"/>
  <AssociationRule support="0.0883919062832801" confidence="0.277591973244147" lift="0.9444161698415" antecedent="55" consequent="11"/>
  <AssociationRule support="0.0894568690095847" confidence="0.280936454849498" lift="0.922375283579297" antecedent="55" consequent="36"/>
  <AssociationRule support="0.0894568690095847" confidence="0.293706293706294" lift="0.922375283579297" antecedent="36" consequent="55"/>
  <AssociationRule support="0.0905218317358893" confidence="0.290102389078498" lift="0.932897751180513" antecedent="39" consequent="16"/>
  <AssociationRule support="0.0905218317358893" confidence="0.291095890410959" lift="0.932897751180513" antecedent="16" consequent="39"/>
  <AssociationRule support="0.0915867944621938" confidence="0.283828382838284" lift="0.891354018344978" antecedent="6" consequent="55"/>
  <AssociationRule support="0.0915867944621938" confidence="0.287625418060201" lift="0.891354018344978" antecedent="55" consequent="6"/>
  <AssociationRule support="0.0915867944621938" confidence="0.287625418060201" lift="0.894305521716981" antecedent="55" consequent="1"/>
  <AssociationRule support="0.0915867944621938" confidence="0.294520547945205" lift="1.00201012507445" antecedent="16" consequent="11"/>
  <AssociationRule support="0.0915867944621938" confidence="0.311594202898551" lift="1.00201012507445" antecedent="11" consequent="16"/>
  <AssociationRule support="0.0915867944621938" confidence="0.28476821192053" lift="0.894305521716981" antecedent="1" consequent="55"/>
  <AssociationRule support="0.0947816826411076" confidence="0.297658862876254" lift="0.953930621982262" antecedent="55" consequent="39"/>
  <AssociationRule support="0.0947816826411076" confidence="0.303754266211604" lift="0.953930621982262" antecedent="39" consequent="55"/>
  <AssociationRule support="0.0947816826411076" confidence="0.304794520547945" lift="0.944561236945612" antecedent="16" consequent="6"/>
  <AssociationRule support="0.0947816826411076" confidence="0.293729372937294" lift="0.944561236945612" antecedent="6" consequent="16"/>
  <AssociationRule support="0.0958466453674121" confidence="0.298013245033112" lift="0.958337113308536" antecedent="1" consequent="16"/>
  <AssociationRule support="0.0958466453674121" confidence="0.308219178082192" lift="0.958337113308536" antecedent="16" consequent="1"/>
  <AssociationRule support="0.103301384451544" confidence="0.339160839160839" lift="1.05106279858755" antecedent="36" consequent="6"/>
  <AssociationRule support="0.103301384451544" confidence="0.32013201320132" lift="1.05106279858755" antecedent="6" consequent="36"/>
  <AssociationRule support="0.153354632587859" confidence="0.521739130434782" lift="1.71298266950441" antecedent="11" consequent="36"/>
  <AssociationRule support="0.153354632587859" confidence="0.503496503496503" lift="1.71298266950441" antecedent="36" consequent="11"/>
  <AssociationRule support="0.154419595314164" confidence="0.496575342465753" lift="1.55947908553626" antecedent="16" consequent="55"/>
  <AssociationRule support="0.154419595314164" confidence="0.48494983277592" lift="1.55947908553626" antecedent="55" consequent="16"/>
  <AssociationRule support="0.177848775292865" confidence="0.551155115511551" lift="1.76632987530835" antecedent="6" consequent="39"/>
  <AssociationRule support="0.177848775292865" confidence="0.569965870307167" lift="1.76632987530835" antecedent="39" consequent="6"/>
  <AssociationRule support="0.181043663471778" confidence="0.562913907284768" lift="1.80401419433583" antecedent="1" consequent="39"/>
  <AssociationRule support="0.181043663471778" confidence="0.580204778156997" lift="1.80401419433583" antecedent="39" consequent="1"/>
  <AssociationRule support="0.184238551650692" confidence="0.570957095709571" lift="1.77526063864665" antecedent="6" consequent="1"/>
  <AssociationRule support="0.184238551650692" confidence="0.572847682119205" lift="1.77526063864665" antecedent="1" consequent="6"/>
  </AssociationModel>
 </PMML>
