<?xml version="1.0" encoding="iso-8859-15" ?>
<PMML version="2.1">
  <Header copyright="Copyright IBM Corp. 2002, 2004 All Rights Reserved">
    <Application name="IBM DB2 Intelligent Miner" version="8.2"/>
    <Timestamp>2004-11-15 16:24:34</Timestamp>
  </Header>
  <MiningBuildTask>
    <Extension>&lt;?xml version="1.0" encoding="iso-8859-15" ?> &lt;DataMining>&lt;MiningTask trainData="trainData">&lt;MiningData name="trainData" tableName="EXPLOIT_TRAIN">&lt;Column alias="RECORDID" name="RECORDID" sqlType="INTEGER"/>&lt;Column alias="SGL_VAL" name="SGL_VAL" sqlType="CHAR"/>&lt;Column alias="BI_VAL" name="BI_VAL" sqlType="CHAR"/>&lt;Column alias="TRI_VAL" name="TRI_VAL" sqlType="CHAR"/>&lt;Column alias="TRAIL_BLANKS" name="TRAIL_BLANKS" sqlType="CHAR"/>&lt;Column alias="LEAD_BLANKS" name="LEAD_BLANKS" sqlType="CHAR"/>&lt;Column alias="EMPTY_STR" name="EMPTY_STR" sqlType="CHAR"/>&lt;Column alias="CAP_STR" name="CAP_STR" sqlType="CHAR"/>&lt;Column alias="INT100" name="INT100" sqlType="SMALLINT"/>&lt;Column alias="INT_0_1" name="INT_0_1" sqlType="SMALLINT"/>&lt;Column alias="CONST1" name="CONST1" sqlType="SMALLINT"/>&lt;Column alias="NORM_0_1" name="NORM_0_1" sqlType="DECIMAL"/>&lt;Column alias="NORM100" name="NORM100" sqlType="DECIMAL"/>&lt;Column alias="TARGET_BI" name="TARGET_BI" sqlType="CHAR"/>&lt;Column alias="TARGET_TRI" name="TARGET_TRI" sqlType="CHAR"/>&lt;Column alias="TARGET_INT100" name="TARGET_INT100" sqlType="SMALLINT"/>&lt;Column alias="TARGET_0_1" name="TARGET_0_1" sqlType="SMALLINT"/>&lt;Column alias="TARGET_CONT" name="TARGET_CONT" sqlType="DECIMAL"/>&lt;/MiningData>&lt;MiningSettings powerOptions="-buf 1024">&lt;LogicalDataSpec>&lt;MiningField name="SGL_VAL" type="categorical"/>&lt;MiningField name="BI_VAL" type="categorical"/>&lt;MiningField name="TRI_VAL" type="categorical"/>&lt;MiningField name="TRAIL_BLANKS" type="categorical"/>&lt;MiningField name="LEAD_BLANKS" type="categorical"/>&lt;MiningField name="EMPTY_STR" type="categorical"/>&lt;MiningField name="CAP_STR" type="categorical"/>&lt;MiningField name="INT100" type="numerical"/>&lt;MiningField name="INT_0_1" type="numerical"/>&lt;MiningField name="CONST1" type="numerical"/>&lt;MiningField name="NORM_0_1" type="numerical"/>&lt;MiningField name="NORM100" type="numerical"/>&lt;MiningField name="TARGET_BI" type="categorical"/>&lt;MiningField name="TARGET_TRI" type="categorical"/>&lt;MiningField name="TARGET_INT100" type="numerical"/>&lt;MiningField name="TARGET_0_1" type="numerical"/>&lt;MiningField name="TARGET_CONT" type="numerical"/>&lt;/LogicalDataSpec>&lt;ClusSettings/>&lt;FieldUsageEntry field="SGL_VAL" usageType="active"/>&lt;FieldUsageEntry field="BI_VAL" usageType="active"/>&lt;FieldUsageEntry field="TRI_VAL" usageType="active"/>&lt;FieldUsageEntry field="TRAIL_BLANKS" usageType="active"/>&lt;FieldUsageEntry field="LEAD_BLANKS" usageType="active"/>&lt;FieldUsageEntry field="EMPTY_STR" usageType="active"/>&lt;FieldUsageEntry field="CAP_STR" usageType="active"/>&lt;FieldUsageEntry field="INT100" usageType="active"/>&lt;FieldUsageEntry field="INT_0_1" usageType="active"/>&lt;FieldUsageEntry field="CONST1" usageType="active"/>&lt;FieldUsageEntry field="NORM_0_1" usageType="active"/>&lt;FieldUsageEntry field="NORM100" usageType="active"/>&lt;FieldUsageEntry field="TARGET_BI" usageType="active"/>&lt;FieldUsageEntry field="TARGET_TRI" usageType="active"/>&lt;FieldUsageEntry field="TARGET_INT100" usageType="active"/>&lt;FieldUsageEntry field="TARGET_0_1" usageType="active"/>&lt;FieldUsageEntry field="TARGET_CONT" usageType="active"/>&lt;/MiningSettings>&lt;/MiningTask>&lt;/DataMining></Extension>
  </MiningBuildTask>
  <DataDictionary numberOfFields="17">
    <DataField name="INT_0_1" displayName="INT_0_1" optype="continuous">
      <Value value="0"/>
      <Value value="1"/>
    </DataField>
    <DataField name="CONST1" displayName="CONST1" optype="continuous">
      <Value value="1"/>
    </DataField>
    <DataField name="TARGET_0_1" displayName="TARGET_0_1" optype="continuous">
      <Value value="1"/>
      <Value value="0"/>
    </DataField>
    <DataField name="SGL_VAL" displayName="SGL_VAL" optype="categorical">
      <Value value="A"/>
    </DataField>
    <DataField name="BI_VAL" displayName="BI_VAL" optype="categorical">
      <Value value="A"/>
      <Value value="B"/>
    </DataField>
    <DataField name="TRI_VAL" displayName="TRI_VAL" optype="categorical">
      <Value value="A"/>
      <Value value="B"/>
      <Value value="C"/>
    </DataField>
    <DataField name="TRAIL_BLANKS" displayName="TRAIL_BLANKS" optype="categorical">
      <Value value="A"/>
    </DataField>
    <DataField name="LEAD_BLANKS" displayName="LEAD_BLANKS" optype="categorical">
      <Value value=" A"/>
      <Value value="  A"/>
      <Value value="A"/>
    </DataField>
    <DataField name="EMPTY_STR" displayName="EMPTY_STR" optype="categorical">
      <Value value="A"/>
      <Value value="B"/>
      <Value value="C"/>
      <Value value=""/>
    </DataField>
    <DataField name="CAP_STR" displayName="CAP_STR" optype="categorical">
      <Value value="A"/>
      <Value value="a"/>
    </DataField>
    <DataField name="TARGET_BI" displayName="TARGET_BI" optype="categorical">
      <Value value="a"/>
      <Value value="b"/>
    </DataField>
    <DataField name="TARGET_TRI" displayName="TARGET_TRI" optype="categorical">
      <Value value="a"/>
      <Value value="b"/>
      <Value value="c"/>
    </DataField>
    <DataField name="INT100" displayName="INT100" optype="continuous"/>
    <DataField name="NORM_0_1" displayName="NORM_0_1" optype="continuous"/>
    <DataField name="NORM100" displayName="NORM100" optype="continuous"/>
    <DataField name="TARGET_INT100" displayName="TARGET_INT100" optype="continuous"/>
    <DataField name="TARGET_CONT" displayName="TARGET_CONT" optype="continuous"/>
  </DataDictionary>
  <ClusteringModel modelName="prekernel" modelClass="distributionBased" functionName="clustering" algorithmName="Demographic" numberOfClusters="7" x-maxNumClusters="10" x-execTime="0.266000032424927" x-similarityThreshold="0.5" x-quality="0.561252734762946">
    <Extension name="Matrix">
      <Matrix kind="symmetric" nbRows="7" nbCols="7" diagDefault="1" offDiagDefault="0">
        <Array n="1" type="real"> 0.561107325090611</Array>
        <Array n="2" type="real"> 0.453698798168881 0.559714059649955</Array>
        <Array n="3" type="real"> 0.460476083651286 0.471555937777561 0.583470403194694</Array>
        <Array n="4" type="real"> 0.450490753819489 0.494899689420884 0.471053666356453 0.589387910769821</Array>
        <Array n="5" type="real"> 0.451254400895165 0.452942797951439 0.448032183292823 0.459982501732914 0.562411887847993</Array>
        <Array n="6" type="real"> 0.495568312356386 0.437146682460892 0.503360009190807 0.425514239648098 0.437349539687492 0.695206702386548</Array>
        <Array n="7" type="real"> 0.439044195858557 0.497796726647078 0.487474520555733 0.496617414511728 0.443729491648428 0.476569438838446 0.969459683534649</Array>
      </Matrix>
    </Extension>
    <Extension name="X-Correlations">
      <X-Correlations type="linear">
        <Array n="17" type="string"> "BI_VAL" "CAP_STR" "CONST1" "EMPTY_STR" "INT100" "INT_0_1" "LEAD_BLANKS" "NORM100" "NORM_0_1" "SGL_VAL" "TARGET_0_1" "TARGET_BI" "TARGET_CONT" "TARGET_INT100" "TARGET_TRI" "TRAIL_BLANKS" "TRI_VAL"</Array>
        <Matrix kind="symmetric" nbRows="17" nbCols="17" diagDefault="1" offDiagDefault="-99"/>
      </X-Correlations>
    </Extension>
    <MiningSchema>
      <MiningField name="INT_0_1" x-importance="0.189040088267745"/>
      <MiningField name="CONST1" x-importance="7.55208975897378e-23"/>
      <MiningField name="TARGET_0_1" x-importance="0.101418747979984"/>
      <MiningField name="SGL_VAL" x-importance="7.55208975897378e-23"/>
      <MiningField name="BI_VAL" x-importance="0.131565749439968"/>
      <MiningField name="TRI_VAL" x-importance="0.739509846534488"/>
      <MiningField name="TRAIL_BLANKS" x-importance="7.55208975897378e-23"/>
      <MiningField name="LEAD_BLANKS" x-importance="0.104522607464866"/>
      <MiningField name="EMPTY_STR" x-importance="0.710349170260902"/>
      <MiningField name="CAP_STR" x-importance="0.107827075462235"/>
      <MiningField name="TARGET_BI" x-importance="0.157210204286335"/>
      <MiningField name="TARGET_TRI" x-importance="0.140593132501922"/>
      <MiningField name="INT100" lowValue="-100" highValue="100" x-importance="0.137840337913894"/>
      <MiningField name="NORM_0_1" lowValue="0" highValue="1" x-importance="0.154407257570185"/>
      <MiningField name="NORM100" lowValue="-60" highValue="60" x-importance="0.104511462547505"/>
      <MiningField name="TARGET_INT100" lowValue="-100" highValue="100" x-importance="0.124109799725835"/>
      <MiningField name="TARGET_CONT" lowValue="-50" highValue="50" x-importance="0.160787722759036"/>
    </MiningSchema>
    <ModelStats>
      <UnivariateStats field="INT_0_1">
        <Counts totalFreq="500" invalidFreq="0" missingFreq="0"/>
        <DiscrStats>
          <Array n="2" type="int"> 263 237</Array>
        </DiscrStats>
      </UnivariateStats>
      <UnivariateStats field="CONST1">
        <Counts totalFreq="500" invalidFreq="0" missingFreq="0"/>
        <DiscrStats>
          <Array n="1" type="int"> 500</Array>
        </DiscrStats>
      </UnivariateStats>
      <UnivariateStats field="TARGET_0_1">
        <Counts totalFreq="500" invalidFreq="0" missingFreq="0"/>
        <DiscrStats>
          <Array n="2" type="int"> 240 260</Array>
        </DiscrStats>
      </UnivariateStats>
      <UnivariateStats field="SGL_VAL">
        <Counts totalFreq="500" invalidFreq="0" missingFreq="0"/>
        <DiscrStats>
          <Array n="1" type="int"> 500</Array>
        </DiscrStats>
      </UnivariateStats>
      <UnivariateStats field="BI_VAL">
        <Counts totalFreq="500" invalidFreq="0" missingFreq="0"/>
        <DiscrStats>
          <Array n="2" type="int"> 235 265</Array>
        </DiscrStats>
      </UnivariateStats>
      <UnivariateStats field="TRI_VAL">
        <Counts totalFreq="500" invalidFreq="0" missingFreq="0"/>
        <DiscrStats>
          <Array n="3" type="int"> 230 164 106</Array>
        </DiscrStats>
      </UnivariateStats>
      <UnivariateStats field="TRAIL_BLANKS">
        <Counts totalFreq="500" invalidFreq="0" missingFreq="0"/>
        <DiscrStats>
          <Array n="1" type="int"> 500</Array>
        </DiscrStats>
      </UnivariateStats>
      <UnivariateStats field="LEAD_BLANKS">
        <Counts totalFreq="500" invalidFreq="0" missingFreq="0"/>
        <DiscrStats>
          <Array n="3" type="int"> 110 227 163</Array>
        </DiscrStats>
      </UnivariateStats>
      <UnivariateStats field="EMPTY_STR">
        <Counts totalFreq="500" invalidFreq="0" missingFreq="0"/>
        <DiscrStats>
          <Array n="4" type="int"> 196 136 91 77</Array>
        </DiscrStats>
      </UnivariateStats>
      <UnivariateStats field="CAP_STR">
        <Counts totalFreq="500" invalidFreq="0" missingFreq="0"/>
        <DiscrStats>
          <Array n="2" type="int"> 325 175</Array>
        </DiscrStats>
      </UnivariateStats>
      <UnivariateStats field="TARGET_BI">
        <Counts totalFreq="500" invalidFreq="0" missingFreq="0"/>
        <DiscrStats>
          <Array n="2" type="int"> 302 198</Array>
        </DiscrStats>
      </UnivariateStats>
      <UnivariateStats field="TARGET_TRI">
        <Counts totalFreq="500" invalidFreq="0" missingFreq="0"/>
        <DiscrStats>
          <Array n="3" type="int"> 156 185 159</Array>
        </DiscrStats>
      </UnivariateStats>
      <UnivariateStats field="INT100">
        <Counts totalFreq="500" invalidFreq="0" missingFreq="0"/>
        <NumericInfo minimum="-99" maximum="100" mean="5.098" standardDeviation="57.9835198409539"/>
        <ContStats totalValuesSum="2549" totalSquaresSum="1690677">
          <Interval closure="openOpen" rightMargin="-100"/>
          <Interval closure="closedOpen" leftMargin="-100" rightMargin="-75"/>
          <Interval closure="closedOpen" leftMargin="-75" rightMargin="-50"/>
          <Interval closure="closedOpen" leftMargin="-50" rightMargin="-25"/>
          <Interval closure="closedOpen" leftMargin="-25" rightMargin="0"/>
          <Interval closure="closedOpen" leftMargin="0" rightMargin="25"/>
          <Interval closure="closedOpen" leftMargin="25" rightMargin="50"/>
          <Interval closure="closedOpen" leftMargin="50" rightMargin="75"/>
          <Interval closure="closedOpen" leftMargin="75" rightMargin="100"/>
          <Interval closure="closedOpen" leftMargin="100"/>
          <Array n="10" type="int"> 0 48 58 74 60 56 57 72 69 6</Array>
          <Array n="10" type="real"> 0 -4210 -3646 -2795 -738 683 2119 4582 5954 600</Array>
          <Array n="10" type="real"> 0 371406 232312 109371 12156 11325 81493 294764 517850 60000</Array>
        </ContStats>
      </UnivariateStats>
      <UnivariateStats field="NORM_0_1">
        <Counts totalFreq="500" invalidFreq="0" missingFreq="0"/>
        <NumericInfo minimum="0.00435425713861094" maximum="0.99944887729336" mean="0.492715460951773" standardDeviation="0.285574459475612"/>
        <ContStats totalValuesSum="246.357730475887" totalSquaresSum="162.079095910948">
          <Interval closure="openOpen" rightMargin="0"/>
          <Interval closure="closedOpen" leftMargin="0" rightMargin="0.1"/>
          <Interval closure="closedOpen" leftMargin="0.1" rightMargin="0.2"/>
          <Interval closure="closedOpen" leftMargin="0.2" rightMargin="0.3"/>
          <Interval closure="closedOpen" leftMargin="0.3" rightMargin="0.4"/>
          <Interval closure="closedOpen" leftMargin="0.4" rightMargin="0.5"/>
          <Interval closure="closedOpen" leftMargin="0.5" rightMargin="0.6"/>
          <Interval closure="closedOpen" leftMargin="0.6" rightMargin="0.7"/>
          <Interval closure="closedOpen" leftMargin="0.7" rightMargin="0.8"/>
          <Interval closure="closedOpen" leftMargin="0.8" rightMargin="0.9"/>
          <Interval closure="closedOpen" leftMargin="0.9" rightMargin="1"/>
          <Interval closure="closedOpen" leftMargin="1"/>
          <Array n="12" type="int"> 0 52 51 49 57 47 45 52 57 51 39 0</Array>
          <Array n="12" type="real"> 0 2.5962978152541 7.75296254072011 12.3312035055511 20.1256183595982 21.3875793918909 24.7899082595435 33.9180483105211 42.9814812992613 43.2173243193968 37.2573066741495 0</Array>
          <Array n="12" type="real"> 0 0.162010200274983 1.22537317118351 3.15091002347162 7.14929225330534 9.77218254909902 13.6989230333204 22.1792212334103 32.4524500415781 36.6657575079602 35.6229758973449 0</Array>
        </ContStats>
      </UnivariateStats>
      <UnivariateStats field="NORM100">
        <Counts totalFreq="500" invalidFreq="0" missingFreq="0"/>
        <NumericInfo minimum="-49.9317309818844" maximum="49.8930243309089" mean="0.784569795422522" standardDeviation="29.7532132480625"/>
        <ContStats totalValuesSum="392.284897711261" totalSquaresSum="442049.3704757">
          <Interval closure="openOpen" rightMargin="-60"/>
          <Interval closure="closedOpen" leftMargin="-60" rightMargin="-40"/>
          <Interval closure="closedOpen" leftMargin="-40" rightMargin="-20"/>
          <Interval closure="closedOpen" leftMargin="-20" rightMargin="0"/>
          <Interval closure="closedOpen" leftMargin="0" rightMargin="20"/>
          <Interval closure="closedOpen" leftMargin="20" rightMargin="40"/>
          <Interval closure="closedOpen" leftMargin="40" rightMargin="60"/>
          <Interval closure="closedOpen" leftMargin="60"/>
          <Array n="8" type="int"> 0 52 100 92 93 104 59 0</Array>
          <Array n="8" type="real"> 0 -2333.12056615628 -2983.09867153089 -986.364677868022 888.489597634641 3182.71648817822 2623.66272745359 0</Array>
          <Array n="8" type="real"> 0 105115.84685771 92816.1879714552 14008.8351135532 11872.8644129102 101025.172209872 117210.463910199 0</Array>
        </ContStats>
      </UnivariateStats>
      <UnivariateStats field="TARGET_INT100">
        <Counts totalFreq="500" invalidFreq="0" missingFreq="0"/>
        <NumericInfo minimum="-100" maximum="99" mean="-0.808" standardDeviation="57.6105640501841"/>
        <ContStats totalValuesSum="-404" totalSquaresSum="1656496">
          <Interval closure="openOpen" rightMargin="-100"/>
          <Interval closure="closedOpen" leftMargin="-100" rightMargin="-75"/>
          <Interval closure="closedOpen" leftMargin="-75" rightMargin="-50"/>
          <Interval closure="closedOpen" leftMargin="-50" rightMargin="-25"/>
          <Interval closure="closedOpen" leftMargin="-25" rightMargin="0"/>
          <Interval closure="closedOpen" leftMargin="0" rightMargin="25"/>
          <Interval closure="closedOpen" leftMargin="25" rightMargin="50"/>
          <Interval closure="closedOpen" leftMargin="50" rightMargin="75"/>
          <Interval closure="closedOpen" leftMargin="75" rightMargin="100"/>
          <Interval closure="closedOpen" leftMargin="100"/>
          <Array n="10" type="int"> 0 68 59 60 66 54 72 63 58 0</Array>
          <Array n="10" type="real"> 0 -5852 -3764 -2251 -815 660 2619 3913 5086 0</Array>
          <Array n="10" type="real"> 0 506672 243202 87195 13443 10628 99441 246879 449036 0</Array>
        </ContStats>
      </UnivariateStats>
      <UnivariateStats field="TARGET_CONT">
        <Counts totalFreq="500" invalidFreq="0" missingFreq="0"/>
        <NumericInfo minimum="-49.9139553401219" maximum="49.9141179024773" mean="-1.65964059757983" standardDeviation="28.393059193488"/>
        <ContStats totalValuesSum="-829.820298789917" totalSquaresSum="403653.942828659">
          <Interval closure="openOpen" rightMargin="-50"/>
          <Interval closure="closedOpen" leftMargin="-50" rightMargin="-40"/>
          <Interval closure="closedOpen" leftMargin="-40" rightMargin="-30"/>
          <Interval closure="closedOpen" leftMargin="-30" rightMargin="-20"/>
          <Interval closure="closedOpen" leftMargin="-20" rightMargin="-10"/>
          <Interval closure="closedOpen" leftMargin="-10" rightMargin="0"/>
          <Interval closure="closedOpen" leftMargin="0" rightMargin="10"/>
          <Interval closure="closedOpen" leftMargin="10" rightMargin="20"/>
          <Interval closure="closedOpen" leftMargin="20" rightMargin="30"/>
          <Interval closure="closedOpen" leftMargin="30" rightMargin="40"/>
          <Interval closure="closedOpen" leftMargin="40" rightMargin="50"/>
          <Interval closure="closedOpen" leftMargin="50"/>
          <Array n="12" type="int"> 0 56 45 48 57 54 65 42 46 36 51 0</Array>
          <Array n="12" type="real"> 0 -2539.57259475234 -1558.0697720908 -1221.56747017129 -845.731324560815 -268.327275648865 290.204775957486 637.275906203909 1131.45098096293 1245.27456166468 2299.24191364517 0</Array>
          <Array n="12" type="real"> 0 115617.159722665 54286.876080765 31488.4718107634 13050.7076818251 1755.76140890215 1765.38227581512 10073.1360653526 28078.1115553209 43438.5933005069 104099.742926743 0</Array>
        </ContStats>
      </UnivariateStats>
    </ModelStats>
    <ComparisonMeasure kind="similarity">
      <cityBlock/>
    </ComparisonMeasure>
    <ClusteringField field="INT_0_1" similarityScale="0.249911808091669" compareFunction="gaussSim" x-quality="0.501359549429866"/>
    <ClusteringField field="CONST1" similarityScale="0.001" compareFunction="gaussSim" x-quality="1"/>
    <ClusteringField field="TARGET_0_1" similarityScale="0.250050095181346" compareFunction="gaussSim" x-quality="0.500807651107871"/>
    <ClusteringField field="SGL_VAL" compareFunction="equal" x-quality="1"/>
    <ClusteringField field="BI_VAL" compareFunction="equal" x-quality="0.5018"/>
    <ClusteringField field="TRI_VAL" compareFunction="equal" x-quality="0.364128"/>
    <ClusteringField field="TRAIL_BLANKS" compareFunction="equal" x-quality="1"/>
    <ClusteringField field="LEAD_BLANKS" compareFunction="equal" x-quality="0.360792"/>
    <ClusteringField field="EMPTY_STR" compareFunction="equal" x-quality="0.284488"/>
    <ClusteringField field="CAP_STR" compareFunction="equal" x-quality="0.545"/>
    <ClusteringField field="TARGET_BI" compareFunction="equal" x-quality="0.521632"/>
    <ClusteringField field="TARGET_TRI" compareFunction="equal" x-quality="0.335368"/>
    <ClusteringField field="INT100" similarityScale="28.9917599204769" compareFunction="gaussSim" x-quality="0.27928436025688"/>
    <ClusteringField field="NORM_0_1" similarityScale="0.142787229737806" compareFunction="gaussSim" x-quality="0.279147726247029"/>
    <ClusteringField field="NORM100" similarityScale="14.8766066240312" compareFunction="gaussSim" x-quality="0.27208377331118"/>
    <ClusteringField field="TARGET_INT100" similarityScale="28.805282025092" compareFunction="gaussSim" x-quality="0.278790283611794"/>
    <ClusteringField field="TARGET_CONT" similarityScale="14.196529596744" compareFunction="gaussSim" x-quality="0.27626816812883"/>
    <CenterFields>
      <DerivedField>
        <NormContinuous field="INT100">
          <LinearNorm orig="-99" norm="0"/>
          <LinearNorm orig="100" norm="1"/>
        </NormContinuous>
      </DerivedField>
      <DerivedField>
        <NormContinuous field="NORM_0_1">
          <LinearNorm orig="0.00435425713861094" norm="0"/>
          <LinearNorm orig="0.99944887729336" norm="1"/>
        </NormContinuous>
      </DerivedField>
      <DerivedField>
        <NormContinuous field="NORM100">
          <LinearNorm orig="-49.9317309818844" norm="0"/>
          <LinearNorm orig="49.8930243309089" norm="1"/>
        </NormContinuous>
      </DerivedField>
      <DerivedField>
        <NormContinuous field="TARGET_INT100">
          <LinearNorm orig="-100" norm="0"/>
          <LinearNorm orig="99" norm="1"/>
        </NormContinuous>
      </DerivedField>
      <DerivedField>
        <NormContinuous field="TARGET_CONT">
          <LinearNorm orig="-49.9139553401219" norm="0"/>
          <LinearNorm orig="49.9141179024773" norm="1"/>
        </NormContinuous>
      </DerivedField>
      <DerivedField>
        <NormContinuous field="INT_0_1">
          <LinearNorm orig="0" norm="0"/>
          <LinearNorm orig="1" norm="1"/>
        </NormContinuous>
      </DerivedField>
      <DerivedField>
        <NormContinuous field="CONST1">
          <LinearNorm orig="1" norm="0"/>
          <LinearNorm orig="1" norm="1"/>
        </NormContinuous>
      </DerivedField>
      <DerivedField>
        <NormContinuous field="TARGET_0_1">
          <LinearNorm orig="0" norm="0"/>
          <LinearNorm orig="1" norm="1"/>
        </NormContinuous>
      </DerivedField>
      <DerivedField>
        <NormDiscrete field="SGL_VAL" value="A"/>
      </DerivedField>
      <DerivedField>
        <NormDiscrete field="BI_VAL" value="A"/>
      </DerivedField>
      <DerivedField>
        <NormDiscrete field="BI_VAL" value="B"/>
      </DerivedField>
      <DerivedField>
        <NormDiscrete field="TRI_VAL" value="A"/>
      </DerivedField>
      <DerivedField>
        <NormDiscrete field="TRI_VAL" value="B"/>
      </DerivedField>
      <DerivedField>
        <NormDiscrete field="TRI_VAL" value="C"/>
      </DerivedField>
      <DerivedField>
        <NormDiscrete field="TRAIL_BLANKS" value="A"/>
      </DerivedField>
      <DerivedField>
        <NormDiscrete field="LEAD_BLANKS" value=" A"/>
      </DerivedField>
      <DerivedField>
        <NormDiscrete field="LEAD_BLANKS" value="  A"/>
      </DerivedField>
      <DerivedField>
        <NormDiscrete field="LEAD_BLANKS" value="A"/>
      </DerivedField>
      <DerivedField>
        <NormDiscrete field="EMPTY_STR" value="A"/>
      </DerivedField>
      <DerivedField>
        <NormDiscrete field="EMPTY_STR" value="B"/>
      </DerivedField>
      <DerivedField>
        <NormDiscrete field="EMPTY_STR" value="C"/>
      </DerivedField>
      <DerivedField>
        <NormDiscrete field="EMPTY_STR" value=""/>
      </DerivedField>
      <DerivedField>
        <NormDiscrete field="CAP_STR" value="A"/>
      </DerivedField>
      <DerivedField>
        <NormDiscrete field="CAP_STR" value="a"/>
      </DerivedField>
      <DerivedField>
        <NormDiscrete field="TARGET_BI" value="a"/>
      </DerivedField>
      <DerivedField>
        <NormDiscrete field="TARGET_BI" value="b"/>
      </DerivedField>
      <DerivedField>
        <NormDiscrete field="TARGET_TRI" value="a"/>
      </DerivedField>
      <DerivedField>
        <NormDiscrete field="TARGET_TRI" value="b"/>
      </DerivedField>
      <DerivedField>
        <NormDiscrete field="TARGET_TRI" value="c"/>
      </DerivedField>
    </CenterFields>
    <Cluster name="1" x-quality="0.561116887166164">
      <Extension name="X-FieldQuality">
        <X-FieldQuality>
          <Array n="17" type="real"> 0.502534429061353 1 0.500018893852329 1 0.505941016598908 0.962669302127086 1 0.382628422542171 0.803059230475506 0.556613732845174 0.570090519080883 0.336268277891332 0.287790702000424 0.281389038039008 0.287492109064518 0.288540342915645 0.273951065330451</Array>
        </X-FieldQuality>
      </Extension>
      <Extension name="Cluster">
        <Cluster x-quality="0.561107325090611">
          <Extension name="X-FieldQuality">
            <X-FieldQuality>
              <Array n="17" type="real"> 0.502069654662357 1 0.501522664136765 1 0.504208399966333 1 1 0.372569649019443 0.811253261509974 0.554540863563673 0.548649103610807 0.333726117330191 0.288045274893776 0.280675400696256 0.279519772475076 0.286049457219738 0.275994907456</Array>
            </X-FieldQuality>
          </Extension>
          <Array n="29" type="real"> 6.80275229357798 0.511840408406428 0.297276264220627 -3.93119266055046 -2.71437697520918 0.467889908256881 1 0.472477064220183 1 0.454128440366972 0.545871559633027 1 0 0 1 0.197247706422018 0.477064220183486 0.325688073394495 0.894495412844037 0 0 0.105504587155963 0.665137614678899 0.334862385321101 0.655963302752294 0.344036697247706 0.348623853211009 0.321100917431193 0.330275229357798</Array>
          <Partition name="1" size="218">
            <PartitionFieldStats field="INT_0_1">
              <Counts totalFreq="218" invalidFreq="0" missingFreq="0"/>
              <Array n="2" type="int"> 116 102</Array>
            </PartitionFieldStats>
            <PartitionFieldStats field="CONST1">
              <Counts totalFreq="218" invalidFreq="0" missingFreq="0"/>
              <Array n="1" type="int"> 218</Array>
            </PartitionFieldStats>
            <PartitionFieldStats field="TARGET_0_1">
              <Counts totalFreq="218" invalidFreq="0" missingFreq="0"/>
              <Array n="2" type="int"> 103 115</Array>
            </PartitionFieldStats>
            <PartitionFieldStats field="SGL_VAL">
              <Counts totalFreq="218" invalidFreq="0" missingFreq="0"/>
              <Array n="1" type="int"> 218</Array>
            </PartitionFieldStats>
            <PartitionFieldStats field="BI_VAL">
              <Counts totalFreq="218" invalidFreq="0" missingFreq="0"/>
              <Array n="2" type="int"> 99 119</Array>
            </PartitionFieldStats>
            <PartitionFieldStats field="TRI_VAL">
              <Counts totalFreq="218" invalidFreq="0" missingFreq="0"/>
              <Array n="3" type="int"> 218 0 0</Array>
            </PartitionFieldStats>
            <PartitionFieldStats field="TRAIL_BLANKS">
              <Counts totalFreq="218" invalidFreq="0" missingFreq="0"/>
              <Array n="1" type="int"> 218</Array>
            </PartitionFieldStats>
            <PartitionFieldStats field="LEAD_BLANKS">
              <Counts totalFreq="218" invalidFreq="0" missingFreq="0"/>
              <Array n="3" type="int"> 43 104 71</Array>
            </PartitionFieldStats>
            <PartitionFieldStats field="EMPTY_STR">
              <Counts totalFreq="218" invalidFreq="0" missingFreq="0"/>
              <Array n="4" type="int"> 195 0 0 23</Array>
            </PartitionFieldStats>
            <PartitionFieldStats field="CAP_STR">
              <Counts totalFreq="218" invalidFreq="0" missingFreq="0"/>
              <Array n="2" type="int"> 145 73</Array>
            </PartitionFieldStats>
            <PartitionFieldStats field="TARGET_BI">
              <Counts totalFreq="218" invalidFreq="0" missingFreq="0"/>
              <Array n="2" type="int"> 143 75</Array>
            </PartitionFieldStats>
            <PartitionFieldStats field="TARGET_TRI">
              <Counts totalFreq="218" invalidFreq="0" missingFreq="0"/>
              <Array n="3" type="int"> 76 70 72</Array>
            </PartitionFieldStats>
            <PartitionFieldStats field="INT100">
              <Counts totalFreq="218" invalidFreq="0" missingFreq="0"/>
              <NumericInfo minimum="-97" maximum="100" mean="6.80275229357798" standardDeviation="55.5479001311466"/>
              <Array n="10" type="int"> 0 18 23 29 32 25 30 32 27 2</Array>
              <Array n="10" type="real"> 0 -1573 -1415 -1117 -415 325 1108 2047 2323 200</Array>
              <Array n="10" type="real"> 0 138325 88081 44539 6957 5513 42250 132565 201427 20000</Array>
            </PartitionFieldStats>
            <PartitionFieldStats field="NORM_0_1">
              <Counts totalFreq="218" invalidFreq="0" missingFreq="0"/>
              <NumericInfo minimum="0.00435425713861094" maximum="0.989371820348022" mean="0.511840408406428" standardDeviation="0.287866666330416"/>
              <Array n="12" type="int"> 0 18 24 21 23 22 17 20 26 28 19 0</Array>
              <Array n="12" type="real"> 0 0.849241323233229 3.53407087807268 5.31850423119892 8.16501560675214 10.0229514171476 9.33478220614362 13.0922229760756 19.5799265934992 23.6136393368308 18.0708544636475 0</Array>
              <Array n="12" type="real"> 0 0.0522244189814097 0.544498493929389 1.3705300483666 2.91366598088479 4.58572400992691 5.13672984563212 8.5899185745648 14.7655457001242 19.9367960132204 17.1983247318676 0</Array>
            </PartitionFieldStats>
            <PartitionFieldStats field="NORM100">
              <Counts totalFreq="218" invalidFreq="0" missingFreq="0"/>
              <NumericInfo minimum="-49.5383678467657" maximum="49.8930243309089" mean="0.297276264220627" standardDeviation="28.9287327816294"/>
              <Array n="8" type="int"> 0 19 45 48 35 46 25 0</Array>
              <Array n="8" type="real"> 0 -853.130542022703 -1328.93903375554 -514.182256913829 275.441671314389 1389.57386956996 1096.04251740782 0</Array>
              <Array n="8" type="real"> 0 38423.5006435069 40870.2749732474 7373.70463793441 3266.56796675848 43427.5205136838 48258.8295536628 0</Array>
            </PartitionFieldStats>
            <PartitionFieldStats field="TARGET_INT100">
              <Counts totalFreq="218" invalidFreq="0" missingFreq="0"/>
              <NumericInfo minimum="-99" maximum="99" mean="-3.93119266055046" standardDeviation="55.8051237216982"/>
              <Array n="10" type="int"> 0 26 30 30 34 22 31 22 23 0</Array>
              <Array n="10" type="real"> 0 -2260 -1860 -1113 -456 309 1140 1349 2034 0</Array>
              <Array n="10" type="real"> 0 197820 116890 42375 7832 5491 43702 83899 181144 0</Array>
            </PartitionFieldStats>
            <PartitionFieldStats field="TARGET_CONT">
              <Counts totalFreq="218" invalidFreq="0" missingFreq="0"/>
              <NumericInfo minimum="-49.8790824785266" maximum="49.8041220474076" mean="-2.71437697520918" standardDeviation="28.5523855239023"/>
              <Array n="12" type="int"> 0 27 17 25 23 23 30 15 25 12 21 0</Array>
              <Array n="12" type="real"> 0 -1233.00520921266 -594.860769456653 -641.384781753358 -353.089225852438 -124.711378000077 147.165463421105 223.267852409402 603.796537571492 426.431569935024 954.655760342561 0</Array>
              <Array n="12" type="real"> 0 56487.8818251265 20937.137651207 16670.2340465947 5588.98351635219 872.440136609261 919.856317305607 3440.75441585555 14735.3304248284 15269.5684532354 43590.8048940418 0</Array>
            </PartitionFieldStats>
          </Partition>
        </Cluster>
      </Extension>
      <Array n="29" type="real"> 7.32227488151659 0.517605931101338 0.196276118041828 -4.67772511848341 -2.104362200544 0.464454976303318 1 0.502369668246445 1 0.445497630331754 0.554502369668246 0.981042654028436 0.004739336492891 0.014218009478673 1 0.184834123222749 0.497630331753554 0.317535545023697 0.890995260663507 0 0.014218009478673 0.0947867298578199 0.66824644549763 0.33175355450237 0.687203791469194 0.312796208530806 0.374407582938389 0.298578199052133 0.327014218009479</Array>
      <Partition name="1" size="211">
        <PartitionFieldStats field="INT_0_1">
          <Counts totalFreq="211" invalidFreq="0" missingFreq="0"/>
          <Array n="2" type="int"> 113 98</Array>
        </PartitionFieldStats>
        <PartitionFieldStats field="CONST1">
          <Counts totalFreq="211" invalidFreq="0" missingFreq="0"/>
          <Array n="1" type="int"> 211</Array>
        </PartitionFieldStats>
        <PartitionFieldStats field="TARGET_0_1">
          <Counts totalFreq="211" invalidFreq="0" missingFreq="0"/>
          <Array n="2" type="int"> 106 105</Array>
        </PartitionFieldStats>
        <PartitionFieldStats field="SGL_VAL">
          <Counts totalFreq="211" invalidFreq="0" missingFreq="0"/>
          <Array n="1" type="int"> 211</Array>
        </PartitionFieldStats>
        <PartitionFieldStats field="BI_VAL">
          <Counts totalFreq="211" invalidFreq="0" missingFreq="0"/>
          <Array n="2" type="int"> 94 117</Array>
        </PartitionFieldStats>
        <PartitionFieldStats field="TRI_VAL">
          <Counts totalFreq="211" invalidFreq="0" missingFreq="0"/>
          <Array n="3" type="int"> 207 1 3</Array>
        </PartitionFieldStats>
        <PartitionFieldStats field="TRAIL_BLANKS">
          <Counts totalFreq="211" invalidFreq="0" missingFreq="0"/>
          <Array n="1" type="int"> 211</Array>
        </PartitionFieldStats>
        <PartitionFieldStats field="LEAD_BLANKS">
          <Counts totalFreq="211" invalidFreq="0" missingFreq="0"/>
          <Array n="3" type="int"> 39 105 67</Array>
        </PartitionFieldStats>
        <PartitionFieldStats field="EMPTY_STR">
          <Counts totalFreq="211" invalidFreq="0" missingFreq="0"/>
          <Array n="4" type="int"> 188 0 3 20</Array>
        </PartitionFieldStats>
        <PartitionFieldStats field="CAP_STR">
          <Counts totalFreq="211" invalidFreq="0" missingFreq="0"/>
          <Array n="2" type="int"> 141 70</Array>
        </PartitionFieldStats>
        <PartitionFieldStats field="TARGET_BI">
          <Counts totalFreq="211" invalidFreq="0" missingFreq="0"/>
          <Array n="2" type="int"> 145 66</Array>
        </PartitionFieldStats>
        <PartitionFieldStats field="TARGET_TRI">
          <Counts totalFreq="211" invalidFreq="0" missingFreq="0"/>
          <Array n="3" type="int"> 79 63 69</Array>
        </PartitionFieldStats>
        <PartitionFieldStats field="INT100">
          <Counts totalFreq="211" invalidFreq="0" missingFreq="0"/>
          <NumericInfo minimum="-97" maximum="100" mean="7.32227488151659" standardDeviation="55.6297319146471"/>
          <Array n="10" type="int"> 0 18 21 27 31 24 30 31 27 2</Array>
          <Array n="10" type="real"> 0 -1573 -1304 -1055 -405 303 1108 1970 2301 200</Array>
          <Array n="10" type="real"> 0 138325 81920 42567 6857 5003 42250 126716 197555 20000</Array>
        </PartitionFieldStats>
        <PartitionFieldStats field="NORM_0_1">
          <Counts totalFreq="211" invalidFreq="0" missingFreq="0"/>
          <NumericInfo minimum="0.012442345271093" maximum="0.989371820348022" mean="0.517605931101338" standardDeviation="0.287974842936932"/>
          <Array n="12" type="int"> 0 16 24 21 20 22 16 20 25 28 19 0</Array>
          <Array n="12" type="real"> 0 0.821885895832388 3.53407087807268 5.28330876784553 7.08566585978757 10.0229514171476 8.81620930825184 13.0922229760756 18.8095734826334 23.6136393368308 18.1353235399049 0</Array>
          <Array n="12" type="real"> 0 0.0516764055927485 0.544498493929389 1.35188020568169 2.52510345975152 4.58572400992691 4.86781199520424 8.5899185745648 14.1718196636816 19.9367960132204 17.3202231942829 0</Array>
        </PartitionFieldStats>
        <PartitionFieldStats field="NORM100">
          <Counts totalFreq="211" invalidFreq="0" missingFreq="0"/>
          <NumericInfo minimum="-49.5383678467657" maximum="49.8930243309089" mean="0.196276118041828" standardDeviation="28.0210606059304"/>
          <Array n="8" type="int"> 0 16 43 50 35 46 21 0</Array>
          <Array n="8" type="real"> 0 -718.500098268735 -1272.93736758779 -529.641746603717 275.441671314389 1368.26007122558 918.791730827089 0</Array>
          <Array n="8" type="real"> 0 32347.8283167054 39234.0328170701 7530.67972146433 3266.56796675848 42151.3400774219 40365.4456019991 0</Array>
        </PartitionFieldStats>
        <PartitionFieldStats field="TARGET_INT100">
          <Counts totalFreq="211" invalidFreq="0" missingFreq="0"/>
          <NumericInfo minimum="-99" maximum="99" mean="-4.67772511848341" standardDeviation="55.0383453044138"/>
          <Array n="10" type="int"> 0 26 27 31 33 22 31 20 21 0</Array>
          <Array n="10" type="real"> 0 -2260 -1661 -1146 -437 309 1140 1223 1845 0</Array>
          <Array n="10" type="real"> 0 197820 103643 43464 7445 5491 43702 75917 163271 0</Array>
        </PartitionFieldStats>
        <PartitionFieldStats field="TARGET_CONT">
          <Counts totalFreq="211" invalidFreq="0" missingFreq="0"/>
          <NumericInfo minimum="-49.8790824785266" maximum="49.8041220474076" mean="-2.104362200544" standardDeviation="28.7747491450213"/>
          <Array n="12" type="int"> 0 26 16 23 22 23 27 15 25 13 21 0</Array>
          <Array n="12" type="real"> 0 -1185.09110458432 -570.535135581407 -598.970951069599 -335.994093136859 -124.711378000077 139.89562503523 223.267852409402 603.796537571492 456.883603058235 947.438619983121 0</Array>
          <Array n="12" type="real"> 0 54192.1204027913 20466.1613606088 15769.3621679495 5299.95785678859 872.440136609261 902.17277197894 3440.75441585555 14735.3304248284 16196.8947745726 42936.2850405843 0</Array>
        </PartitionFieldStats>
      </Partition>
    </Cluster>
    <Cluster name="2" x-quality="0.546736948245058">
      <Extension name="X-FieldQuality">
        <X-FieldQuality>
          <Array n="17" type="real"> 0.615918023516281 1 0.526372142683508 1 0.501344307270233 0.761755829903978 1 0.353196159122085 0.599670781893004 0.623155006858711 0.52636488340192 0.374924554183813 0.273224385665071 0.284939327363917 0.274653348800789 0.27987846272413 0.299130906778539</Array>
        </X-FieldQuality>
      </Extension>
      <Extension name="Cluster">
        <Cluster x-quality="0.559714059649955">
          <Extension name="X-FieldQuality">
            <X-FieldQuality>
              <Array n="17" type="real"> 0.534436906290827 1 0.501239976859273 1 0.50002514964036 0.98591620139832 1 0.356269805341784 0.74649162516976 0.606257230521604 0.530808309441175 0.357879382324833 0.270090998127115 0.283196897879599 0.281518957660842 0.280300507770837 0.280707065622909</Array>
            </X-FieldQuality>
          </Extension>
          <Array n="29" type="real"> 0.957446808510638 0.482057877644428 1.33437321382022 3.73758865248227 0.154450979215144 0.368794326241135 1 0.475177304964539 1 0.50354609929078 0.49645390070922 0 0.99290780141844 0.00709219858156028 1 0.219858156028369 0.432624113475177 0.347517730496454 0 0.851063829787234 0 0.148936170212766 0.730496453900709 0.269503546099291 0.624113475177305 0.375886524822695 0.26241134751773 0.460992907801418 0.276595744680851</Array>
          <Partition name="2" size="141">
            <PartitionFieldStats field="INT_0_1">
              <Counts totalFreq="141" invalidFreq="0" missingFreq="0"/>
              <Array n="2" type="int"> 89 52</Array>
            </PartitionFieldStats>
            <PartitionFieldStats field="CONST1">
              <Counts totalFreq="141" invalidFreq="0" missingFreq="0"/>
              <Array n="1" type="int"> 141</Array>
            </PartitionFieldStats>
            <PartitionFieldStats field="TARGET_0_1">
              <Counts totalFreq="141" invalidFreq="0" missingFreq="0"/>
              <Array n="2" type="int"> 67 74</Array>
            </PartitionFieldStats>
            <PartitionFieldStats field="SGL_VAL">
              <Counts totalFreq="141" invalidFreq="0" missingFreq="0"/>
              <Array n="1" type="int"> 141</Array>
            </PartitionFieldStats>
            <PartitionFieldStats field="BI_VAL">
              <Counts totalFreq="141" invalidFreq="0" missingFreq="0"/>
              <Array n="2" type="int"> 71 70</Array>
            </PartitionFieldStats>
            <PartitionFieldStats field="TRI_VAL">
              <Counts totalFreq="141" invalidFreq="0" missingFreq="0"/>
              <Array n="3" type="int"> 0 140 1</Array>
            </PartitionFieldStats>
            <PartitionFieldStats field="TRAIL_BLANKS">
              <Counts totalFreq="141" invalidFreq="0" missingFreq="0"/>
              <Array n="1" type="int"> 141</Array>
            </PartitionFieldStats>
            <PartitionFieldStats field="LEAD_BLANKS">
              <Counts totalFreq="141" invalidFreq="0" missingFreq="0"/>
              <Array n="3" type="int"> 31 61 49</Array>
            </PartitionFieldStats>
            <PartitionFieldStats field="EMPTY_STR">
              <Counts totalFreq="141" invalidFreq="0" missingFreq="0"/>
              <Array n="4" type="int"> 0 120 0 21</Array>
            </PartitionFieldStats>
            <PartitionFieldStats field="CAP_STR">
              <Counts totalFreq="141" invalidFreq="0" missingFreq="0"/>
              <Array n="2" type="int"> 103 38</Array>
            </PartitionFieldStats>
            <PartitionFieldStats field="TARGET_BI">
              <Counts totalFreq="141" invalidFreq="0" missingFreq="0"/>
              <Array n="2" type="int"> 88 53</Array>
            </PartitionFieldStats>
            <PartitionFieldStats field="TARGET_TRI">
              <Counts totalFreq="141" invalidFreq="0" missingFreq="0"/>
              <Array n="3" type="int"> 37 65 39</Array>
            </PartitionFieldStats>
            <PartitionFieldStats field="INT100">
              <Counts totalFreq="141" invalidFreq="0" missingFreq="0"/>
              <NumericInfo minimum="-99" maximum="100" mean="0.957446808510638" standardDeviation="63.2855063908707"/>
              <Array n="10" type="int"> 0 21 15 25 12 13 11 19 23 2</Array>
              <Array n="10" type="real"> 0 -1857 -959 -945 -137 188 428 1210 2007 200</Array>
              <Array n="10" type="real"> 0 165121 61981 37071 2087 3266 16978 77664 176669 20000</Array>
            </PartitionFieldStats>
            <PartitionFieldStats field="NORM_0_1">
              <Counts totalFreq="141" invalidFreq="0" missingFreq="0"/>
              <NumericInfo minimum="0.00943202991477774" maximum="0.99354213010219" mean="0.482057877644428" standardDeviation="0.278739153368901"/>
              <Array n="12" type="int"> 0 17 14 10 18 12 18 15 18 8 11 0</Array>
              <Array n="12" type="real"> 0 0.969151957411855 2.19572779359097 2.47864007739287 6.33990068656388 5.47545373042834 9.9561159284581 9.69786543617857 13.6346536728715 6.73600957623497 10.4866418887333 0</Array>
              <Array n="12" type="real"> 0 0.0651478412633619 0.353969138625521 0.624270736472325 2.24670270945885 2.50782200586112 5.52625573554481 6.28746432910785 10.3434231789621 5.67944976616736 10.0084181787164 0</Array>
            </PartitionFieldStats>
            <PartitionFieldStats field="NORM100">
              <Counts totalFreq="141" invalidFreq="0" missingFreq="0"/>
              <NumericInfo minimum="-49.6684942392951" maximum="49.2901687041345" mean="1.33437321382022" standardDeviation="29.1771379990572"/>
              <Array n="8" type="int"> 0 13 30 21 34 30 13 0</Array>
              <Array n="8" type="real"> 0 -605.422707533195 -874.883357563467 -198.008912777532 345.007676652171 934.72084162511 586.733082745566 0</Array>
              <Array n="8" type="real"> 0 28298.6337119889 26682.8999351414 2657.18461338791 4819.69391825991 30363.1693140933 26612.2297755724 0</Array>
            </PartitionFieldStats>
            <PartitionFieldStats field="TARGET_INT100">
              <Counts totalFreq="141" invalidFreq="0" missingFreq="0"/>
              <NumericInfo minimum="-99" maximum="98" mean="3.73758865248227" standardDeviation="58.7675378552857"/>
              <Array n="10" type="int"> 0 19 16 12 17 16 25 17 19 0</Array>
              <Array n="10" type="real"> 0 -1595 -1078 -478 -192 217 892 1103 1658 0</Array>
              <Array n="10" type="real"> 0 134413 73118 19632 2886 3567 33540 72559 145762 0</Array>
            </PartitionFieldStats>
            <PartitionFieldStats field="TARGET_CONT">
              <Counts totalFreq="141" invalidFreq="0" missingFreq="0"/>
              <NumericInfo minimum="-49.3377415460244" maximum="49.8103446791928" mean="0.154450979215144" standardDeviation="27.7166946783056"/>
              <Array n="12" type="int"> 0 13 14 11 17 12 19 15 13 14 13 0</Array>
              <Array n="12" type="real"> 0 -590.195251973437 -475.04027787365 -270.083919921929 -256.136453666788 -54.5816814781081 70.3042233457343 231.951263491973 323.536118573293 472.505600877342 569.517966694905 0</Array>
              <Array n="12" type="real"> 0 26923.9876044282 16186.1449888984 6709.42447385927 4003.3202220687 326.427167500742 401.428274344718 3720.45916713754 8103.40261041261 16118.8989372665 25059.9930685434 0</Array>
            </PartitionFieldStats>
          </Partition>
        </Cluster>
      </Extension>
      <Array n="29" type="real"> -0.792592592592593 0.482481169142294 1.93451895761807 1.21481481481481 -0.212083787549117 0.259259259259259 1 0.385185185185185 1 0.525925925925926 0.474074074074074 0.037037037037037 0.866666666666667 0.0962962962962963 1 0.222222222222222 0.414814814814815 0.362962962962963 0.0148148148148148 0.755555555555556 0.0814814814814815 0.148148148148148 0.748148148148148 0.251851851851852 0.614814814814815 0.385185185185185 0.222222222222222 0.496296296296296 0.281481481481481</Array>
      <Partition name="2" size="135">
        <PartitionFieldStats field="INT_0_1">
          <Counts totalFreq="135" invalidFreq="0" missingFreq="0"/>
          <Array n="2" type="int"> 100 35</Array>
        </PartitionFieldStats>
        <PartitionFieldStats field="CONST1">
          <Counts totalFreq="135" invalidFreq="0" missingFreq="0"/>
          <Array n="1" type="int"> 135</Array>
        </PartitionFieldStats>
        <PartitionFieldStats field="TARGET_0_1">
          <Counts totalFreq="135" invalidFreq="0" missingFreq="0"/>
          <Array n="2" type="int"> 52 83</Array>
        </PartitionFieldStats>
        <PartitionFieldStats field="SGL_VAL">
          <Counts totalFreq="135" invalidFreq="0" missingFreq="0"/>
          <Array n="1" type="int"> 135</Array>
        </PartitionFieldStats>
        <PartitionFieldStats field="BI_VAL">
          <Counts totalFreq="135" invalidFreq="0" missingFreq="0"/>
          <Array n="2" type="int"> 71 64</Array>
        </PartitionFieldStats>
        <PartitionFieldStats field="TRI_VAL">
          <Counts totalFreq="135" invalidFreq="0" missingFreq="0"/>
          <Array n="3" type="int"> 5 117 13</Array>
        </PartitionFieldStats>
        <PartitionFieldStats field="TRAIL_BLANKS">
          <Counts totalFreq="135" invalidFreq="0" missingFreq="0"/>
          <Array n="1" type="int"> 135</Array>
        </PartitionFieldStats>
        <PartitionFieldStats field="LEAD_BLANKS">
          <Counts totalFreq="135" invalidFreq="0" missingFreq="0"/>
          <Array n="3" type="int"> 30 56 49</Array>
        </PartitionFieldStats>
        <PartitionFieldStats field="EMPTY_STR">
          <Counts totalFreq="135" invalidFreq="0" missingFreq="0"/>
          <Array n="4" type="int"> 2 102 11 20</Array>
        </PartitionFieldStats>
        <PartitionFieldStats field="CAP_STR">
          <Counts totalFreq="135" invalidFreq="0" missingFreq="0"/>
          <Array n="2" type="int"> 101 34</Array>
        </PartitionFieldStats>
        <PartitionFieldStats field="TARGET_BI">
          <Counts totalFreq="135" invalidFreq="0" missingFreq="0"/>
          <Array n="2" type="int"> 83 52</Array>
        </PartitionFieldStats>
        <PartitionFieldStats field="TARGET_TRI">
          <Counts totalFreq="135" invalidFreq="0" missingFreq="0"/>
          <Array n="3" type="int"> 30 67 38</Array>
        </PartitionFieldStats>
        <PartitionFieldStats field="INT100">
          <Counts totalFreq="135" invalidFreq="0" missingFreq="0"/>
          <NumericInfo minimum="-99" maximum="100" mean="-0.792592592592593" standardDeviation="62.6358936122208"/>
          <Array n="10" type="int"> 0 19 17 23 15 9 11 18 21 2</Array>
          <Array n="10" type="real"> 0 -1697 -1071 -841 -186 125 392 1145 1826 200</Array>
          <Array n="10" type="real"> 0 152313 68281 32109 3078 2157 14442 73313 160108 20000</Array>
        </PartitionFieldStats>
        <PartitionFieldStats field="NORM_0_1">
          <Counts totalFreq="135" invalidFreq="0" missingFreq="0"/>
          <NumericInfo minimum="0.00435425713861094" maximum="0.99354213010219" mean="0.482481169142294" standardDeviation="0.276566010446652"/>
          <Array n="12" type="int"> 0 17 11 10 18 13 14 18 16 8 10 0</Array>
          <Array n="12" type="real"> 0 0.887425546481938 1.73425074514665 2.49743573577024 6.41813333631406 5.86949723114702 7.71341306516594 11.6903295324605 12.1013152469421 6.7141526270258 9.50900476775551 0</Array>
          <Array n="12" type="real"> 0 0.0607882234872471 0.28040154941523 0.632674272564401 2.29959812487924 2.66026319983449 4.26712735453561 7.612545404784 9.16710029552793 5.64274193445942 9.05264383840263 0</Array>
        </PartitionFieldStats>
        <PartitionFieldStats field="NORM100">
          <Counts totalFreq="135" invalidFreq="0" missingFreq="0"/>
          <NumericInfo minimum="-49.6684942392951" maximum="49.3753834158999" mean="1.93451895761807" standardDeviation="30.4720428942825"/>
          <Array n="8" type="int"> 0 14 28 21 26 32 14 0</Array>
          <Array n="8" type="real"> 0 -649.328703223415 -815.329886840345 -221.425260636688 302.929822543138 1009.45049524747 634.863592188276 0</Array>
          <Array n="8" type="real"> 0 30257.2454232654 24926.4797616446 3164.29397029644 4494.64595481406 33156.8717325805 28930.7655952788 0</Array>
        </PartitionFieldStats>
        <PartitionFieldStats field="TARGET_INT100">
          <Counts totalFreq="135" invalidFreq="0" missingFreq="0"/>
          <NumericInfo minimum="-100" maximum="98" mean="1.21481481481481" standardDeviation="59.1894738001117"/>
          <Array n="10" type="int"> 0 17 20 11 16 15 23 15 18 0</Array>
          <Array n="10" type="real"> 0 -1438 -1340 -446 -189 223 822 962 1570 0</Array>
          <Array n="10" type="real"> 0 122324 90356 18638 3021 3723 30904 62710 137978 0</Array>
        </PartitionFieldStats>
        <PartitionFieldStats field="TARGET_CONT">
          <Counts totalFreq="135" invalidFreq="0" missingFreq="0"/>
          <NumericInfo minimum="-49.3377415460244" maximum="49.8103446791928" mean="-0.212083787549117" standardDeviation="25.8820177148845"/>
          <Array n="12" type="int"> 0 10 11 11 18 15 23 14 10 12 11 0</Array>
          <Array n="12" type="real"> 0 -457.727021750867 -369.361657611729 -269.111749911267 -275.112397491518 -80.2195797815079 85.0242676376478 204.130998861106 244.766837938114 409.185009733394 479.793981057496 0</Array>
          <Array n="12" type="real"> 0 21034.970656028 12448.8009164077 6668.87576893329 4347.96710499443 531.052717618667 474.617387713752 3116.56471850054 6034.65779985887 14086.5108892997 21025.8189707341 0</Array>
        </PartitionFieldStats>
      </Partition>
    </Cluster>
    <Cluster name="3" x-quality="0.563518897330163">
      <Extension name="X-FieldQuality">
        <X-FieldQuality>
          <Array n="17" type="real"> 0.795861078834451 1 0.573971026776176 1 0.644970414201183 0.384615384615385 1 0.399408284023669 0.384615384615385 0.547337278106509 0.79585798816568 0.346153846153846 0.30170577806982 0.291997923429446 0.290810167596452 0.308477613628475 0.514039086396287</Array>
        </X-FieldQuality>
      </Extension>
      <Extension name="Cluster">
        <Cluster x-quality="0.583470403194694">
          <Extension name="X-FieldQuality">
            <X-FieldQuality>
              <Array n="17" type="real"> 0.882814274195048 1 0.57031908570796 1 0.625 0.3671875 1 0.5390625 0.6953125 0.53125 0.78125 0.3828125 0.299225918029921 0.315188721702009 0.270850631277599 0.279910190944633 0.378813032452632</Array>
            </X-FieldQuality>
          </Extension>
          <Array n="29" type="real"> 12.875 0.417122271688246 7.65583085660163 0.9375 -21.2015817826388 0.9375 1 0.3125 1 0.75 0.25 0.375 0.4375 0.1875 1 0.25 0.0625 0.6875 0 0.1875 0 0.8125 0.625 0.375 0.125 0.875 0.3125 0.1875 0.5</Array>
          <Partition name="3" size="16">
            <PartitionFieldStats field="INT_0_1">
              <Counts totalFreq="16" invalidFreq="0" missingFreq="0"/>
              <Array n="2" type="int"> 1 15</Array>
            </PartitionFieldStats>
            <PartitionFieldStats field="CONST1">
              <Counts totalFreq="16" invalidFreq="0" missingFreq="0"/>
              <Array n="1" type="int"> 16</Array>
            </PartitionFieldStats>
            <PartitionFieldStats field="TARGET_0_1">
              <Counts totalFreq="16" invalidFreq="0" missingFreq="0"/>
              <Array n="2" type="int"> 5 11</Array>
            </PartitionFieldStats>
            <PartitionFieldStats field="SGL_VAL">
              <Counts totalFreq="16" invalidFreq="0" missingFreq="0"/>
              <Array n="1" type="int"> 16</Array>
            </PartitionFieldStats>
            <PartitionFieldStats field="BI_VAL">
              <Counts totalFreq="16" invalidFreq="0" missingFreq="0"/>
              <Array n="2" type="int"> 12 4</Array>
            </PartitionFieldStats>
            <PartitionFieldStats field="TRI_VAL">
              <Counts totalFreq="16" invalidFreq="0" missingFreq="0"/>
              <Array n="3" type="int"> 6 7 3</Array>
            </PartitionFieldStats>
            <PartitionFieldStats field="TRAIL_BLANKS">
              <Counts totalFreq="16" invalidFreq="0" missingFreq="0"/>
              <Array n="1" type="int"> 16</Array>
            </PartitionFieldStats>
            <PartitionFieldStats field="LEAD_BLANKS">
              <Counts totalFreq="16" invalidFreq="0" missingFreq="0"/>
              <Array n="3" type="int"> 4 1 11</Array>
            </PartitionFieldStats>
            <PartitionFieldStats field="EMPTY_STR">
              <Counts totalFreq="16" invalidFreq="0" missingFreq="0"/>
              <Array n="4" type="int"> 0 3 0 13</Array>
            </PartitionFieldStats>
            <PartitionFieldStats field="CAP_STR">
              <Counts totalFreq="16" invalidFreq="0" missingFreq="0"/>
              <Array n="2" type="int"> 10 6</Array>
            </PartitionFieldStats>
            <PartitionFieldStats field="TARGET_BI">
              <Counts totalFreq="16" invalidFreq="0" missingFreq="0"/>
              <Array n="2" type="int"> 2 14</Array>
            </PartitionFieldStats>
            <PartitionFieldStats field="TARGET_TRI">
              <Counts totalFreq="16" invalidFreq="0" missingFreq="0"/>
              <Array n="3" type="int"> 5 3 8</Array>
            </PartitionFieldStats>
            <PartitionFieldStats field="INT100">
              <Counts totalFreq="16" invalidFreq="0" missingFreq="0"/>
              <NumericInfo minimum="-91" maximum="100" mean="12.875" standardDeviation="59.749337513761"/>
              <Array n="10" type="int"> 0 1 1 4 2 0 2 3 2 1</Array>
              <Array n="10" type="real"> 0 -91 -57 -152 -27 0 80 197 156 100</Array>
              <Array n="10" type="real"> 0 8281 3249 5950 369 0 3208 12969 12176 10000</Array>
            </PartitionFieldStats>
            <PartitionFieldStats field="NORM_0_1">
              <Counts totalFreq="16" invalidFreq="0" missingFreq="0"/>
              <NumericInfo minimum="0.0319807832278222" maximum="0.973888312454283" mean="0.417122271688246" standardDeviation="0.360970063119472"/>
              <Array n="12" type="int"> 0 6 1 1 1 0 1 1 1 3 1 0</Array>
              <Array n="12" type="real"> 0 0.370628882837775 0.128079287767447 0.273656702727851 0.390653885617225 0 0.580845327852687 0.602877229267208 0.757831121682111 2.59549559680535 0.973888312454283 0</Array>
              <Array n="12" type="real"> 0 0.0247177202850054 0.0164043039550165 0.0748879909478794 0.152610458347836 0 0.337381294888295 0.363460953568906 0.574308008989966 2.24611745352299 0.948458445135051 0</Array>
            </PartitionFieldStats>
            <PartitionFieldStats field="NORM100">
              <Counts totalFreq="16" invalidFreq="0" missingFreq="0"/>
              <NumericInfo minimum="-43.2687410587765" maximum="47.4501665204066" mean="7.65583085660163" standardDeviation="35.2463323227527"/>
              <Array n="8" type="int"> 0 2 3 2 2 2 5 0</Array>
              <Array n="8" type="real"> 0 -84.2899856084445 -85.3198740795813 -30.7206875322017 26.0886188717971 72.4921847565529 224.243037297504 0</Array>
              <Array n="8" type="real"> 0 3554.92645721512 2481.60123847261 473.917960897294 360.250306104658 2628.9252098186 10072.7258982588 0</Array>
            </PartitionFieldStats>
            <PartitionFieldStats field="TARGET_INT100">
              <Counts totalFreq="16" invalidFreq="0" missingFreq="0"/>
              <NumericInfo minimum="-98" maximum="95" mean="0.9375" standardDeviation="61.1549602785143"/>
              <Array n="10" type="int"> 0 3 0 4 2 1 1 3 2 0</Array>
              <Array n="10" type="real"> 0 -256 0 -134 -11 24 27 185 180 0</Array>
              <Array n="10" type="real"> 0 22088 0 4708 65 576 729 11697 16250 0</Array>
            </PartitionFieldStats>
            <PartitionFieldStats field="TARGET_CONT">
              <Counts totalFreq="16" invalidFreq="0" missingFreq="0"/>
              <NumericInfo minimum="-49.9139553401219" maximum="35.8781782844468" mean="-21.2015817826388" standardDeviation="24.7230816015742"/>
              <Array n="12" type="int"> 0 5 2 3 2 2 0 1 0 1 0 0</Array>
              <Array n="12" type="real"> 0 -226.083714783231 -66.0356094902547 -76.7062803389068 -21.661380967899 -3.78717500892802 0 19.170673782551 0 35.8781782844468 0 0</Array>
              <Array n="12" type="real"> 0 10293.4180279353 2183.38559339349 1981.56589587191 235.903942677236 11.5427093807406 0 367.514733276988 0 1287.24367701055 0 0</Array>
            </PartitionFieldStats>
          </Partition>
        </Cluster>
      </Extension>
      <Array n="29" type="real"> 2.80769230769231 0.406416176828463 14.2084168891605 16.6153846153846 -27.4736615312342 0.884615384615385 1 0.307692307692308 1 0.769230769230769 0.230769230769231 0.384615384615385 0.461538461538462 0.153846153846154 1 0.269230769230769 0.192307692307692 0.538461538461538 0.115384615384615 0.346153846153846 0.0384615384615385 0.5 0.653846153846154 0.346153846153846 0.115384615384615 0.884615384615385 0.307692307692308 0.269230769230769 0.423076923076923</Array>
      <Partition name="3" size="26">
        <PartitionFieldStats field="INT_0_1">
          <Counts totalFreq="26" invalidFreq="0" missingFreq="0"/>
          <Array n="2" type="int"> 3 23</Array>
        </PartitionFieldStats>
        <PartitionFieldStats field="CONST1">
          <Counts totalFreq="26" invalidFreq="0" missingFreq="0"/>
          <Array n="1" type="int"> 26</Array>
        </PartitionFieldStats>
        <PartitionFieldStats field="TARGET_0_1">
          <Counts totalFreq="26" invalidFreq="0" missingFreq="0"/>
          <Array n="2" type="int"> 8 18</Array>
        </PartitionFieldStats>
        <PartitionFieldStats field="SGL_VAL">
          <Counts totalFreq="26" invalidFreq="0" missingFreq="0"/>
          <Array n="1" type="int"> 26</Array>
        </PartitionFieldStats>
        <PartitionFieldStats field="BI_VAL">
          <Counts totalFreq="26" invalidFreq="0" missingFreq="0"/>
          <Array n="2" type="int"> 20 6</Array>
        </PartitionFieldStats>
        <PartitionFieldStats field="TRI_VAL">
          <Counts totalFreq="26" invalidFreq="0" missingFreq="0"/>
          <Array n="3" type="int"> 10 12 4</Array>
        </PartitionFieldStats>
        <PartitionFieldStats field="TRAIL_BLANKS">
          <Counts totalFreq="26" invalidFreq="0" missingFreq="0"/>
          <Array n="1" type="int"> 26</Array>
        </PartitionFieldStats>
        <PartitionFieldStats field="LEAD_BLANKS">
          <Counts totalFreq="26" invalidFreq="0" missingFreq="0"/>
          <Array n="3" type="int"> 7 5 14</Array>
        </PartitionFieldStats>
        <PartitionFieldStats field="EMPTY_STR">
          <Counts totalFreq="26" invalidFreq="0" missingFreq="0"/>
          <Array n="4" type="int"> 3 9 1 13</Array>
        </PartitionFieldStats>
        <PartitionFieldStats field="CAP_STR">
          <Counts totalFreq="26" invalidFreq="0" missingFreq="0"/>
          <Array n="2" type="int"> 17 9</Array>
        </PartitionFieldStats>
        <PartitionFieldStats field="TARGET_BI">
          <Counts totalFreq="26" invalidFreq="0" missingFreq="0"/>
          <Array n="2" type="int"> 3 23</Array>
        </PartitionFieldStats>
        <PartitionFieldStats field="TARGET_TRI">
          <Counts totalFreq="26" invalidFreq="0" missingFreq="0"/>
          <Array n="3" type="int"> 8 7 11</Array>
        </PartitionFieldStats>
        <PartitionFieldStats field="INT100">
          <Counts totalFreq="26" invalidFreq="0" missingFreq="0"/>
          <NumericInfo minimum="-91" maximum="100" mean="2.80769230769231" standardDeviation="56.9554346701132"/>
          <Array n="10" type="int"> 0 2 2 7 4 1 3 4 2 1</Array>
          <Array n="10" type="real"> 0 -173 -126 -262 -43 23 120 259 175 100</Array>
          <Array n="10" type="real"> 0 15005 8010 10056 505 529 4808 16813 15577 10000</Array>
        </PartitionFieldStats>
        <PartitionFieldStats field="NORM_0_1">
          <Counts totalFreq="26" invalidFreq="0" missingFreq="0"/>
          <NumericInfo minimum="0.0319807832278222" maximum="0.973888312454283" mean="0.406416176828463" standardDeviation="0.334298920208772"/>
          <Array n="12" type="int"> 0 8 2 3 2 0 3 1 2 3 2 0</Array>
          <Array n="12" type="real"> 0 0.434969905500752 0.252872058773819 0.801514931862017 0.755455179491758 0 1.71587097119348 0.602877229267208 1.52070836747098 2.59549559680535 1.88705635717467 0</Array>
          <Array n="12" type="real"> 0 0.0254707193060999 0.0319775396504653 0.215556472791619 0.285690442360369 0 0.981523424436916 0.363460953568906 1.15628970113238 2.24611745352299 1.78233432303351 0</Array>
        </PartitionFieldStats>
        <PartitionFieldStats field="NORM100">
          <Counts totalFreq="26" invalidFreq="0" missingFreq="0"/>
          <NumericInfo minimum="-41.021244549668" maximum="47.4501665204066" mean="14.2084168891605" standardDeviation="29.4607187545909"/>
          <Array n="8" type="int"> 0 1 4 3 6 3 9 0</Array>
          <Array n="8" type="real"> 0 -41.021244549668 -107.316861817295 -31.3233236695282 47.2619843423655 104.889392459248 396.928892353051 0</Array>
          <Array n="8" type="real"> 0 1682.74250440367 2965.46870800574 474.281131211306 591.388643301221 3678.50427675016 17554.8203476562 0</Array>
        </PartitionFieldStats>
        <PartitionFieldStats field="TARGET_INT100">
          <Counts totalFreq="26" invalidFreq="0" missingFreq="0"/>
          <NumericInfo minimum="-98" maximum="98" mean="16.6153846153846" standardDeviation="55.1086758491452"/>
          <Array n="10" type="int"> 0 2 1 4 4 1 5 6 3 0</Array>
          <Array n="10" type="real"> 0 -178 -73 -134 -29 24 160 384 278 0</Array>
          <Array n="10" type="real"> 0 16004 5329 4708 245 576 5376 25010 25854 0</Array>
        </PartitionFieldStats>
        <PartitionFieldStats field="TARGET_CONT">
          <Counts totalFreq="26" invalidFreq="0" missingFreq="0"/>
          <NumericInfo minimum="-49.9139553401219" maximum="35.8781782844468" mean="-27.4736615312342" standardDeviation="20.3811425631345"/>
          <Array n="12" type="int"> 0 8 8 5 2 1 0 1 0 1 0 0</Array>
          <Array n="12" type="real"> 0 -357.208737524789 -269.986469750286 -120.092281033328 -21.661380967899 -0.415182602785147 0 19.170673782551 0 35.8781782844468 0 0</Array>
          <Array n="12" type="real"> 0 16051.9136024329 9143.89351928915 2922.98647944306 235.903942677236 0.172376593655449 0 367.514733276988 0 1287.24367701055 0 0</Array>
        </PartitionFieldStats>
      </Partition>
    </Cluster>
    <Cluster name="4" x-quality="0.563632201030343">
      <Extension name="X-FieldQuality">
        <X-FieldQuality>
          <Array n="17" type="real"> 0.920140097969959 1 0.507820043629117 1 0.78125 0.516493055555556 1 0.427951388888889 0.365451388888889 0.53125 0.646701388888889 0.344618055555556 0.312066213783718 0.341329559555574 0.282788837350682 0.291642054297941 0.31224533315106</Array>
        </X-FieldQuality>
      </Extension>
      <Extension name="Cluster">
        <Cluster x-quality="0.589387910769821">
          <Extension name="X-FieldQuality">
            <X-FieldQuality>
              <Array n="17" type="real"> 1 1 0.511841801514368 1 0.92603550295858 0.479289940828402 1 0.375739644970414 0.411242603550296 0.739644970414201 0.57396449704142 0.363905325443787 0.321752178502894 0.337425683818979 0.303385623894121 0.315457343602633 0.359909366546863</Array>
            </X-FieldQuality>
          </Extension>
          <Array n="29" type="real"> 16.5384615384615 0.462243325220606 4.6660244432872 0.192307692307692 21.2317623959572 1 1 0.576923076923077 1 0.0384615384615385 0.961538461538462 0.0769230769230769 0.615384615384615 0.307692307692308 1 0.269230769230769 0.5 0.230769230769231 0 0.5 0.115384615384615 0.384615384615385 0.153846153846154 0.846153846153846 0.692307692307692 0.307692307692308 0.384615384615385 0.192307692307692 0.423076923076923</Array>
          <Partition name="4" size="26">
            <PartitionFieldStats field="INT_0_1">
              <Counts totalFreq="26" invalidFreq="0" missingFreq="0"/>
              <Array n="2" type="int"> 0 26</Array>
            </PartitionFieldStats>
            <PartitionFieldStats field="CONST1">
              <Counts totalFreq="26" invalidFreq="0" missingFreq="0"/>
              <Array n="1" type="int"> 26</Array>
            </PartitionFieldStats>
            <PartitionFieldStats field="TARGET_0_1">
              <Counts totalFreq="26" invalidFreq="0" missingFreq="0"/>
              <Array n="2" type="int"> 15 11</Array>
            </PartitionFieldStats>
            <PartitionFieldStats field="SGL_VAL">
              <Counts totalFreq="26" invalidFreq="0" missingFreq="0"/>
              <Array n="1" type="int"> 26</Array>
            </PartitionFieldStats>
            <PartitionFieldStats field="BI_VAL">
              <Counts totalFreq="26" invalidFreq="0" missingFreq="0"/>
              <Array n="2" type="int"> 1 25</Array>
            </PartitionFieldStats>
            <PartitionFieldStats field="TRI_VAL">
              <Counts totalFreq="26" invalidFreq="0" missingFreq="0"/>
              <Array n="3" type="int"> 2 16 8</Array>
            </PartitionFieldStats>
            <PartitionFieldStats field="TRAIL_BLANKS">
              <Counts totalFreq="26" invalidFreq="0" missingFreq="0"/>
              <Array n="1" type="int"> 26</Array>
            </PartitionFieldStats>
            <PartitionFieldStats field="LEAD_BLANKS">
              <Counts totalFreq="26" invalidFreq="0" missingFreq="0"/>
              <Array n="3" type="int"> 7 13 6</Array>
            </PartitionFieldStats>
            <PartitionFieldStats field="EMPTY_STR">
              <Counts totalFreq="26" invalidFreq="0" missingFreq="0"/>
              <Array n="4" type="int"> 0 13 3 10</Array>
            </PartitionFieldStats>
            <PartitionFieldStats field="CAP_STR">
              <Counts totalFreq="26" invalidFreq="0" missingFreq="0"/>
              <Array n="2" type="int"> 4 22</Array>
            </PartitionFieldStats>
            <PartitionFieldStats field="TARGET_BI">
              <Counts totalFreq="26" invalidFreq="0" missingFreq="0"/>
              <Array n="2" type="int"> 18 8</Array>
            </PartitionFieldStats>
            <PartitionFieldStats field="TARGET_TRI">
              <Counts totalFreq="26" invalidFreq="0" missingFreq="0"/>
              <Array n="3" type="int"> 10 5 11</Array>
            </PartitionFieldStats>
            <PartitionFieldStats field="INT100">
              <Counts totalFreq="26" invalidFreq="0" missingFreq="0"/>
              <NumericInfo minimum="-75" maximum="94" mean="16.5384615384615" standardDeviation="51.4044595491331"/>
              <Array n="10" type="int"> 0 0 3 4 2 6 1 6 4 0</Array>
              <Array n="10" type="real"> 0 0 -195 -145 -22 48 28 377 339 0</Array>
              <Array n="10" type="real"> 0 0 12953 5569 292 656 784 24069 28849 0</Array>
            </PartitionFieldStats>
            <PartitionFieldStats field="NORM_0_1">
              <Counts totalFreq="26" invalidFreq="0" missingFreq="0"/>
              <NumericInfo minimum="0.0156266670746853" maximum="0.996572725007577" mean="0.462243325220606" standardDeviation="0.24619361201481"/>
              <Array n="12" type="int"> 0 2 3 2 3 4 3 6 2 0 1 0</Array>
              <Array n="12" type="real"> 0 0.0674650222377223 0.418148996503162 0.54718498631715 1.01595858392117 1.91328694387958 1.5800747562107 3.96935587281797 1.51027856884072 0 0.996572725007577 0</Array>
              <Array n="12" type="real"> 0 0.00293140778987222 0.0595521153544604 0.149909040363958 0.344411201372106 0.916800838812278 0.832414034122374 2.63002470133761 1.14147301402686 0 0.993157196229028 0</Array>
            </PartitionFieldStats>
            <PartitionFieldStats field="NORM100">
              <Counts totalFreq="26" invalidFreq="0" missingFreq="0"/>
              <NumericInfo minimum="-43.2480169428736" maximum="45.8780537805883" mean="4.6660244432872" standardDeviation="29.3586030434571"/>
              <Array n="8" type="int"> 0 3 4 4 3 10 2 0</Array>
              <Array n="8" type="real"> 0 -125.04379459426 -116.037922173756 -34.5647693306975 15.8864892394685 291.977142073203 89.0994903115087 0</Array>
              <Array n="8" type="real"> 0 5215.66868280472 3470.66880197701 453.813100631522 153.758043567704 8847.4586798495 3972.88839449093 0</Array>
            </PartitionFieldStats>
            <PartitionFieldStats field="TARGET_INT100">
              <Counts totalFreq="26" invalidFreq="0" missingFreq="0"/>
              <NumericInfo minimum="-98" maximum="84" mean="0.192307692307692" standardDeviation="54.6984601105144"/>
              <Array n="10" type="int"> 0 4 2 2 2 6 4 5 1 0</Array>
              <Array n="10" type="real"> 0 -371 -118 -70 -13 48 153 292 84 0</Array>
              <Array n="10" type="real"> 0 34569 6980 2522 125 406 5973 17168 7056 0</Array>
            </PartitionFieldStats>
            <PartitionFieldStats field="TARGET_CONT">
              <Counts totalFreq="26" invalidFreq="0" missingFreq="0"/>
              <NumericInfo minimum="-29.2927552383825" maximum="49.9141179024773" mean="21.2317623959572" standardDeviation="24.8198225853439"/>
              <Array n="12" type="int"> 0 0 0 2 2 1 4 2 3 3 9 0</Array>
              <Array n="12" type="real"> 0 0 0 -56.1663529165864 -25.0869484269465 -2.77503456583947 8.10867064078742 29.7654738788332 82.76555879636 105.880006754715 409.534448133565 0</Array>
              <Array n="12" type="real"> 0 0 0 1580.25576162575 319.705598711307 7.70081684160386 19.8335186182071 470.422148422655 2288.0223940787 3739.22090399518 18695.9097823033 0</Array>
            </PartitionFieldStats>
          </Partition>
        </Cluster>
      </Extension>
      <Array n="29" type="real"> 21.6041666666667 0.471278139056534 2.92801217913846 5.58333333333333 14.8864489224754 0.958333333333333 1 0.5625 1 0.125 0.875 0.0416666666666667 0.645833333333333 0.3125 1 0.229166666666667 0.583333333333333 0.1875 0 0.479166666666667 0.25 0.270833333333333 0.375 0.625 0.770833333333333 0.229166666666667 0.270833333333333 0.3125 0.416666666666667</Array>
      <Partition name="4" size="48">
        <PartitionFieldStats field="INT_0_1">
          <Counts totalFreq="48" invalidFreq="0" missingFreq="0"/>
          <Array n="2" type="int"> 2 46</Array>
        </PartitionFieldStats>
        <PartitionFieldStats field="CONST1">
          <Counts totalFreq="48" invalidFreq="0" missingFreq="0"/>
          <Array n="1" type="int"> 48</Array>
        </PartitionFieldStats>
        <PartitionFieldStats field="TARGET_0_1">
          <Counts totalFreq="48" invalidFreq="0" missingFreq="0"/>
          <Array n="2" type="int"> 27 21</Array>
        </PartitionFieldStats>
        <PartitionFieldStats field="SGL_VAL">
          <Counts totalFreq="48" invalidFreq="0" missingFreq="0"/>
          <Array n="1" type="int"> 48</Array>
        </PartitionFieldStats>
        <PartitionFieldStats field="BI_VAL">
          <Counts totalFreq="48" invalidFreq="0" missingFreq="0"/>
          <Array n="2" type="int"> 6 42</Array>
        </PartitionFieldStats>
        <PartitionFieldStats field="TRI_VAL">
          <Counts totalFreq="48" invalidFreq="0" missingFreq="0"/>
          <Array n="3" type="int"> 2 31 15</Array>
        </PartitionFieldStats>
        <PartitionFieldStats field="TRAIL_BLANKS">
          <Counts totalFreq="48" invalidFreq="0" missingFreq="0"/>
          <Array n="1" type="int"> 48</Array>
        </PartitionFieldStats>
        <PartitionFieldStats field="LEAD_BLANKS">
          <Counts totalFreq="48" invalidFreq="0" missingFreq="0"/>
          <Array n="3" type="int"> 11 28 9</Array>
        </PartitionFieldStats>
        <PartitionFieldStats field="EMPTY_STR">
          <Counts totalFreq="48" invalidFreq="0" missingFreq="0"/>
          <Array n="4" type="int"> 0 23 12 13</Array>
        </PartitionFieldStats>
        <PartitionFieldStats field="CAP_STR">
          <Counts totalFreq="48" invalidFreq="0" missingFreq="0"/>
          <Array n="2" type="int"> 18 30</Array>
        </PartitionFieldStats>
        <PartitionFieldStats field="TARGET_BI">
          <Counts totalFreq="48" invalidFreq="0" missingFreq="0"/>
          <Array n="2" type="int"> 37 11</Array>
        </PartitionFieldStats>
        <PartitionFieldStats field="TARGET_TRI">
          <Counts totalFreq="48" invalidFreq="0" missingFreq="0"/>
          <Array n="3" type="int"> 13 15 20</Array>
        </PartitionFieldStats>
        <PartitionFieldStats field="INT100">
          <Counts totalFreq="48" invalidFreq="0" missingFreq="0"/>
          <NumericInfo minimum="-78" maximum="100" mean="21.6041666666667" standardDeviation="52.0183026641271"/>
          <Array n="10" type="int"> 0 1 4 6 3 11 5 9 8 1</Array>
          <Array n="10" type="real"> 0 -78 -267 -232 -27 98 170 581 692 100</Array>
          <Array n="10" type="real"> 0 6084 18137 9358 317 1354 6034 38127 60170 10000</Array>
        </PartitionFieldStats>
        <PartitionFieldStats field="NORM_0_1">
          <Counts totalFreq="48" invalidFreq="0" missingFreq="0"/>
          <NumericInfo minimum="0.0156266670746853" maximum="0.996572725007577" mean="0.471278139056534" standardDeviation="0.237743280604193"/>
          <Array n="12" type="int"> 0 4 5 3 5 7 9 7 6 1 1 0</Array>
          <Array n="12" type="real"> 0 0.20479712551683 0.740824268078816 0.824882221792303 1.68917915722783 3.24478769313767 4.93381149458411 4.64830619220077 4.48753224242829 0.850657554739461 0.996572725007577 0</Array>
          <Array n="12" type="real"> 0 0.012592138879083 0.112307349565915 0.2270247949545 0.572728246158521 1.5106102440493 2.71373778885708 3.09099823752762 3.36070154847283 0.723618275435319 0.993157196229028 0</Array>
        </PartitionFieldStats>
        <PartitionFieldStats field="NORM100">
          <Counts totalFreq="48" invalidFreq="0" missingFreq="0"/>
          <NumericInfo minimum="-45.9531208481421" maximum="48.3273386481811" mean="2.92801217913846" standardDeviation="29.8018954310472"/>
          <Array n="8" type="int"> 0 5 9 6 11 12 5 0</Array>
          <Array n="8" type="real"> 0 -214.265656501178 -280.651471079631 -64.2585887407226 113.819809334269 361.725096200465 224.175395385444 0</Array>
          <Array n="8" type="real"> 0 9199.54195130013 8942.93917071158 910.299342133595 1613.21294030046 11406.1266060172 10082.5858952583 0</Array>
        </PartitionFieldStats>
        <PartitionFieldStats field="TARGET_INT100">
          <Counts totalFreq="48" invalidFreq="0" missingFreq="0"/>
          <NumericInfo minimum="-96" maximum="94" mean="5.58333333333333" standardDeviation="57.160406373097"/>
          <Array n="10" type="int"> 0 7 4 4 4 8 7 9 5 0</Array>
          <Array n="10" type="real"> 0 -596 -252 -146 -45 60 280 527 440 0</Array>
          <Array n="10" type="real"> 0 51074 16030 5412 687 550 11488 31027 38792 0</Array>
        </PartitionFieldStats>
        <PartitionFieldStats field="TARGET_CONT">
          <Counts totalFreq="48" invalidFreq="0" missingFreq="0"/>
          <NumericInfo minimum="-49.257312109348" maximum="49.9141179024773" mean="14.8864489224754" standardDeviation="29.359654063541"/>
          <Array n="12" type="int"> 0 3 1 2 6 3 4 4 5 7 13 0</Array>
          <Array n="12" type="real"> 0 -141.238806951437 -38.5743095486305 -56.1663529165864 -85.3638848221693 -6.44933085723283 10.5867853437489 66.3428234245361 131.381252213093 240.93065363864 593.100718754856 0</Array>
          <Array n="12" type="real"> 0 6672.24226641254 1487.97735715357 1580.25576162575 1268.08237032936 19.1625372677266 30.882103312176 1142.58314204867 3472.12247049096 8345.55389704085 27131.7399236965 0</Array>
        </PartitionFieldStats>
      </Partition>
    </Cluster>
    <Cluster name="5" x-quality="0.562755223444602">
      <Extension name="X-FieldQuality">
        <X-FieldQuality>
          <Array n="17" type="real"> 0.505153469725581 1 0.512714883014782 1 0.50262549884478 1 1 0.353917244276413 0.841209829867675 0.565637471119513 0.50514597773577 0.353917244276413 0.288086470207193 0.288940527653181 0.273088982758961 0.276612373268174 0.299788825809793</Array>
        </X-FieldQuality>
      </Extension>
      <Extension name="Cluster">
        <Cluster x-quality="0.562411887847993">
          <Extension name="X-FieldQuality">
            <X-FieldQuality>
              <Array n="17" type="real"> 0.508155930009168 1 0.500234006663346 1 0.500226346763241 1 1 0.370076957899502 0.880488909008601 0.550928021729289 0.503621548211861 0.346310547759167 0.284804247513083 0.283666753760408 0.260788594387415 0.277323155593338 0.294377074117465</Array>
            </X-FieldQuality>
          </Extension>
          <Array n="29" type="real"> 3.0531914893617 0.481270071328317 -1.55260893687618 -3.54255319148936 -5.27970125857251 0.436170212765957 1 0.48936170212766 1 0.51063829787234 0.48936170212766 0 0 1 1 0.24468085106383 0.48936170212766 0.265957446808511 0 0 0.936170212765957 0.0638297872340425 0.659574468085106 0.340425531914894 0.542553191489362 0.457446808510638 0.297872340425532 0.425531914893617 0.276595744680851</Array>
          <Partition name="5" size="94">
            <PartitionFieldStats field="INT_0_1">
              <Counts totalFreq="94" invalidFreq="0" missingFreq="0"/>
              <Array n="2" type="int"> 53 41</Array>
            </PartitionFieldStats>
            <PartitionFieldStats field="CONST1">
              <Counts totalFreq="94" invalidFreq="0" missingFreq="0"/>
              <Array n="1" type="int"> 94</Array>
            </PartitionFieldStats>
            <PartitionFieldStats field="TARGET_0_1">
              <Counts totalFreq="94" invalidFreq="0" missingFreq="0"/>
              <Array n="2" type="int"> 46 48</Array>
            </PartitionFieldStats>
            <PartitionFieldStats field="SGL_VAL">
              <Counts totalFreq="94" invalidFreq="0" missingFreq="0"/>
              <Array n="1" type="int"> 94</Array>
            </PartitionFieldStats>
            <PartitionFieldStats field="BI_VAL">
              <Counts totalFreq="94" invalidFreq="0" missingFreq="0"/>
              <Array n="2" type="int"> 48 46</Array>
            </PartitionFieldStats>
            <PartitionFieldStats field="TRI_VAL">
              <Counts totalFreq="94" invalidFreq="0" missingFreq="0"/>
              <Array n="3" type="int"> 0 0 94</Array>
            </PartitionFieldStats>
            <PartitionFieldStats field="TRAIL_BLANKS">
              <Counts totalFreq="94" invalidFreq="0" missingFreq="0"/>
              <Array n="1" type="int"> 94</Array>
            </PartitionFieldStats>
            <PartitionFieldStats field="LEAD_BLANKS">
              <Counts totalFreq="94" invalidFreq="0" missingFreq="0"/>
              <Array n="3" type="int"> 23 46 25</Array>
            </PartitionFieldStats>
            <PartitionFieldStats field="EMPTY_STR">
              <Counts totalFreq="94" invalidFreq="0" missingFreq="0"/>
              <Array n="4" type="int"> 0 0 88 6</Array>
            </PartitionFieldStats>
            <PartitionFieldStats field="CAP_STR">
              <Counts totalFreq="94" invalidFreq="0" missingFreq="0"/>
              <Array n="2" type="int"> 62 32</Array>
            </PartitionFieldStats>
            <PartitionFieldStats field="TARGET_BI">
              <Counts totalFreq="94" invalidFreq="0" missingFreq="0"/>
              <Array n="2" type="int"> 51 43</Array>
            </PartitionFieldStats>
            <PartitionFieldStats field="TARGET_TRI">
              <Counts totalFreq="94" invalidFreq="0" missingFreq="0"/>
              <Array n="3" type="int"> 28 40 26</Array>
            </PartitionFieldStats>
            <PartitionFieldStats field="INT100">
              <Counts totalFreq="94" invalidFreq="0" missingFreq="0"/>
              <NumericInfo minimum="-96" maximum="100" mean="3.0531914893617" standardDeviation="56.241676473062"/>
              <Array n="10" type="int"> 0 7 16 10 12 12 13 11 12 1</Array>
              <Array n="10" type="real"> 0 -601 -1020 -360 -137 122 475 677 1031 100</Array>
              <Array n="10" type="real"> 0 51935 66048 13304 2451 1890 18273 42021 89125 10000</Array>
            </PartitionFieldStats>
            <PartitionFieldStats field="NORM_0_1">
              <Counts totalFreq="94" invalidFreq="0" missingFreq="0"/>
              <NumericInfo minimum="0.0100240064831562" maximum="0.99944887729336" mean="0.481270071328317" standardDeviation="0.290599359639948"/>
              <Array n="12" type="int"> 0 9 9 15 10 9 6 9 9 11 7 0</Array>
              <Array n="12" type="real"> 0 0.339810629533516 1.47693558478585 3.71321750791427 3.58900591432536 3.9758873004354 3.33809004087843 5.9209194103819 6.74148765706526 9.41468337523503 6.7293492843068 0</Array>
              <Array n="12" type="real"> 0 0.0169888119553336 0.250949119319123 0.931312207320862 1.29652276653185 1.76183569449871 1.86614212313279 3.90537225776506 5.05419126770217 8.06809414022824 6.47461734539682 0</Array>
            </PartitionFieldStats>
            <PartitionFieldStats field="NORM100">
              <Counts totalFreq="94" invalidFreq="0" missingFreq="0"/>
              <NumericInfo minimum="-49.9317309818844" maximum="49.8461321461229" mean="-1.55260893687618" standardDeviation="31.5853442835283"/>
              <Array n="8" type="int"> 0 14 18 16 18 16 12 0</Array>
              <Array n="8" type="real"> 0 -621.767067360583 -577.918483958542 -189.249902167008 207.048306570877 493.952450153396 541.9894566955 0</Array>
              <Array n="8" type="real"> 0 27733.7834316416 19310.7430226168 2664.5578987919 2910.954165337 15758.0984924269 24628.4184095459 0</Array>
            </PartitionFieldStats>
            <PartitionFieldStats field="TARGET_INT100">
              <Counts totalFreq="94" invalidFreq="0" missingFreq="0"/>
              <NumericInfo minimum="-100" maximum="98" mean="-3.54255319148936" standardDeviation="59.056682248009"/>
              <Array n="10" type="int"> 0 15 11 12 11 9 11 14 11 0</Array>
              <Array n="10" type="real"> 0 -1281 -708 -456 -143 62 407 844 942 0</Array>
              <Array n="10" type="real"> 0 109861 46214 17958 2535 588 15497 51738 81144 0</Array>
            </PartitionFieldStats>
            <PartitionFieldStats field="TARGET_CONT">
              <Counts totalFreq="94" invalidFreq="0" missingFreq="0"/>
              <NumericInfo minimum="-48.7891195801967" maximum="49.394750268848" mean="-5.27970125857251" standardDeviation="27.0815744025168"/>
              <Array n="12" type="int"> 0 11 12 6 12 16 10 9 5 6 7 0</Array>
              <Array n="12" type="real"> 0 -490.288418783009 -422.133115270237 -155.977498905723 -170.879490240887 -82.4720065959133 49.3596677898242 133.12064264115 121.352766021785 204.579205813156 317.046329224038 0</Array>
              <Array n="12" type="real"> 0 21911.872265175 14980.207847266 4095.48708672381 2546.42210996163 537.650578569802 304.909303346777 2073.98560065983 2951.35612600117 7023.66132899925 14402.0063260675 0</Array>
            </PartitionFieldStats>
          </Partition>
        </Cluster>
      </Extension>
      <Array n="29" type="real"> -3.91304347826087 0.476815847146151 -7.2008163799603 -6.39130434782609 -6.19934903091815 0.449275362318841 1 0.579710144927536 1 0.536231884057971 0.463768115942029 0 0 1 1 0.289855072463768 0.449275362318841 0.260869565217391 0 0 0.91304347826087 0.0869565217391304 0.681159420289855 0.318840579710145 0.449275362318841 0.550724637681159 0.333333333333333 0.434782608695652 0.231884057971014</Array>
      <Partition name="5" size="69">
        <PartitionFieldStats field="INT_0_1">
          <Counts totalFreq="69" invalidFreq="0" missingFreq="0"/>
          <Array n="2" type="int"> 38 31</Array>
        </PartitionFieldStats>
        <PartitionFieldStats field="CONST1">
          <Counts totalFreq="69" invalidFreq="0" missingFreq="0"/>
          <Array n="1" type="int"> 69</Array>
        </PartitionFieldStats>
        <PartitionFieldStats field="TARGET_0_1">
          <Counts totalFreq="69" invalidFreq="0" missingFreq="0"/>
          <Array n="2" type="int"> 40 29</Array>
        </PartitionFieldStats>
        <PartitionFieldStats field="SGL_VAL">
          <Counts totalFreq="69" invalidFreq="0" missingFreq="0"/>
          <Array n="1" type="int"> 69</Array>
        </PartitionFieldStats>
        <PartitionFieldStats field="BI_VAL">
          <Counts totalFreq="69" invalidFreq="0" missingFreq="0"/>
          <Array n="2" type="int"> 37 32</Array>
        </PartitionFieldStats>
        <PartitionFieldStats field="TRI_VAL">
          <Counts totalFreq="69" invalidFreq="0" missingFreq="0"/>
          <Array n="3" type="int"> 0 0 69</Array>
        </PartitionFieldStats>
        <PartitionFieldStats field="TRAIL_BLANKS">
          <Counts totalFreq="69" invalidFreq="0" missingFreq="0"/>
          <Array n="1" type="int"> 69</Array>
        </PartitionFieldStats>
        <PartitionFieldStats field="LEAD_BLANKS">
          <Counts totalFreq="69" invalidFreq="0" missingFreq="0"/>
          <Array n="3" type="int"> 20 31 18</Array>
        </PartitionFieldStats>
        <PartitionFieldStats field="EMPTY_STR">
          <Counts totalFreq="69" invalidFreq="0" missingFreq="0"/>
          <Array n="4" type="int"> 0 0 63 6</Array>
        </PartitionFieldStats>
        <PartitionFieldStats field="CAP_STR">
          <Counts totalFreq="69" invalidFreq="0" missingFreq="0"/>
          <Array n="2" type="int"> 47 22</Array>
        </PartitionFieldStats>
        <PartitionFieldStats field="TARGET_BI">
          <Counts totalFreq="69" invalidFreq="0" missingFreq="0"/>
          <Array n="2" type="int"> 31 38</Array>
        </PartitionFieldStats>
        <PartitionFieldStats field="TARGET_TRI">
          <Counts totalFreq="69" invalidFreq="0" missingFreq="0"/>
          <Array n="3" type="int"> 23 30 16</Array>
        </PartitionFieldStats>
        <PartitionFieldStats field="INT100">
          <Counts totalFreq="69" invalidFreq="0" missingFreq="0"/>
          <NumericInfo minimum="-96" maximum="93" mean="-3.91304347826087" standardDeviation="57.1848753992221"/>
          <Array n="10" type="int"> 0 7 14 8 7 10 8 6 9 0</Array>
          <Array n="10" type="real"> 0 -601 -878 -294 -77 129 329 357 765 0</Array>
          <Array n="10" type="real"> 0 51935 55964 11118 1399 2257 13959 21365 65427 0</Array>
        </PartitionFieldStats>
        <PartitionFieldStats field="NORM_0_1">
          <Counts totalFreq="69" invalidFreq="0" missingFreq="0"/>
          <NumericInfo minimum="0.0100240064831562" maximum="0.997122984843852" mean="0.476815847146151" standardDeviation="0.306173347388481"/>
          <Array n="12" type="int"> 0 7 8 11 9 5 2 5 6 10 6 0</Array>
          <Array n="12" type="real"> 0 0.247219341922188 1.29694897089943 2.71068237242786 3.221954647555 2.25034305045863 1.09203052245641 3.2495049947172 4.51582637592956 8.58588276970474 5.72990040701344 0</Array>
          <Array n="12" type="real"> 0 0.0114827130098043 0.218553938140822 0.678243476764056 1.16179613409412 1.01558509528832 0.599804619858655 2.11931764589889 3.40015875583264 7.38118369650087 5.47571928707386 0</Array>
        </PartitionFieldStats>
        <PartitionFieldStats field="NORM100">
          <Counts totalFreq="69" invalidFreq="0" missingFreq="0"/>
          <NumericInfo minimum="-49.9317309818844" maximum="49.8461321461229" mean="-7.2008163799603" standardDeviation="30.5331848397045"/>
          <Array n="8" type="int"> 0 13 16 11 13 10 6 0</Array>
          <Array n="8" type="real"> 0 -572.777298848507 -506.863084205828 -120.077609070613 127.045743529241 306.105366910857 269.710551467589 0</Array>
          <Array n="8" type="real"> 0 25333.7860127748 16747.2675140232 1543.62404653736 1536.56581531212 9589.9394506549 12221.3139607911 0</Array>
        </PartitionFieldStats>
        <PartitionFieldStats field="TARGET_INT100">
          <Counts totalFreq="69" invalidFreq="0" missingFreq="0"/>
          <NumericInfo minimum="-90" maximum="92" mean="-6.39130434782609" standardDeviation="58.7970630997502"/>
          <Array n="10" type="int"> 0 13 7 9 8 8 6 10 8 0</Array>
          <Array n="10" type="real"> 0 -1101 -438 -344 -91 44 217 604 668 0</Array>
          <Array n="10" type="real"> 0 93461 27844 13748 1469 288 7971 37068 56052 0</Array>
        </PartitionFieldStats>
        <PartitionFieldStats field="TARGET_CONT">
          <Counts totalFreq="69" invalidFreq="0" missingFreq="0"/>
          <NumericInfo minimum="-47.056122029692" maximum="49.394750268848" mean="-6.19934903091815" standardDeviation="26.4679074037018"/>
          <Array n="12" type="int"> 0 9 9 5 7 12 8 7 5 3 4 0</Array>
          <Array n="12" type="real"> 0 -398.306923940921 -309.612199598743 -126.474354870838 -95.1019525737977 -56.5318044072631 38.4411726325942 111.318773804847 124.647293926518 102.397116949967 181.467794944284 0</Array>
          <Array n="12" type="real"> 0 17665.9127950002 10740.0429273057 3225.05157878067 1356.92543090508 332.933640812839 237.374704974478 1835.55266811304 3114.59179292515 3522.39006258314 8258.43577719641 0</Array>
        </PartitionFieldStats>
      </Partition>
    </Cluster>
    <Cluster name="6" x-quality="0.647896263723404">
      <Extension name="X-FieldQuality">
        <X-FieldQuality>
          <Array n="17" type="real"> 0.510211497043794 1 0.755105794303312 1 1 0.755102040816326 1 0.387755102040816 0.387755102040816 0.755102040816326 1 0.510204081632653 0.459320447970489 0.369499554627474 0.303333346762488 0.461945930863459 0.358901544379905</Array>
        </X-FieldQuality>
      </Extension>
      <Extension name="Cluster">
        <Cluster x-quality="0.695206702386548">
          <Extension name="X-FieldQuality">
            <X-FieldQuality>
              <Array n="17" type="real"> 0.625005677424155 1 1 1 1 1 1 0.375 0.625 0.625 1 0.5 0.424061610487023 0.444103063499828 0.311676348934424 0.490799965091309 0.397867275134583</Array>
            </X-FieldQuality>
          </Extension>
          <Array n="29" type="real"> 24 0.639868109086467 15.2763772361336 36.75 11.219083651071 0.25 1 1 1 1 0 1 0 0 1 0.5 0.25 0.25 0.25 0 0 0.75 0.25 0.75 0 1 0 0.5 0.5</Array>
          <Partition name="6" size="4">
            <PartitionFieldStats field="INT_0_1">
              <Counts totalFreq="4" invalidFreq="0" missingFreq="0"/>
              <Array n="2" type="int"> 3 1</Array>
            </PartitionFieldStats>
            <PartitionFieldStats field="CONST1">
              <Counts totalFreq="4" invalidFreq="0" missingFreq="0"/>
              <Array n="1" type="int"> 4</Array>
            </PartitionFieldStats>
            <PartitionFieldStats field="TARGET_0_1">
              <Counts totalFreq="4" invalidFreq="0" missingFreq="0"/>
              <Array n="2" type="int"> 4 0</Array>
            </PartitionFieldStats>
            <PartitionFieldStats field="SGL_VAL">
              <Counts totalFreq="4" invalidFreq="0" missingFreq="0"/>
              <Array n="1" type="int"> 4</Array>
            </PartitionFieldStats>
            <PartitionFieldStats field="BI_VAL">
              <Counts totalFreq="4" invalidFreq="0" missingFreq="0"/>
              <Array n="2" type="int"> 4 0</Array>
            </PartitionFieldStats>
            <PartitionFieldStats field="TRI_VAL">
              <Counts totalFreq="4" invalidFreq="0" missingFreq="0"/>
              <Array n="3" type="int"> 4 0 0</Array>
            </PartitionFieldStats>
            <PartitionFieldStats field="TRAIL_BLANKS">
              <Counts totalFreq="4" invalidFreq="0" missingFreq="0"/>
              <Array n="1" type="int"> 4</Array>
            </PartitionFieldStats>
            <PartitionFieldStats field="LEAD_BLANKS">
              <Counts totalFreq="4" invalidFreq="0" missingFreq="0"/>
              <Array n="3" type="int"> 2 1 1</Array>
            </PartitionFieldStats>
            <PartitionFieldStats field="EMPTY_STR">
              <Counts totalFreq="4" invalidFreq="0" missingFreq="0"/>
              <Array n="4" type="int"> 1 0 0 3</Array>
            </PartitionFieldStats>
            <PartitionFieldStats field="CAP_STR">
              <Counts totalFreq="4" invalidFreq="0" missingFreq="0"/>
              <Array n="2" type="int"> 1 3</Array>
            </PartitionFieldStats>
            <PartitionFieldStats field="TARGET_BI">
              <Counts totalFreq="4" invalidFreq="0" missingFreq="0"/>
              <Array n="2" type="int"> 0 4</Array>
            </PartitionFieldStats>
            <PartitionFieldStats field="TARGET_TRI">
              <Counts totalFreq="4" invalidFreq="0" missingFreq="0"/>
              <Array n="3" type="int"> 0 2 2</Array>
            </PartitionFieldStats>
            <PartitionFieldStats field="INT100">
              <Counts totalFreq="4" invalidFreq="0" missingFreq="0"/>
              <NumericInfo minimum="-43" maximum="98" mean="24" standardDeviation="72.3740284908889"/>
              <Array n="10" type="int"> 0 0 0 2 0 0 0 1 1 0</Array>
              <Array n="10" type="real"> 0 0 0 -76 0 0 0 74 98 0</Array>
              <Array n="10" type="real"> 0 0 0 2938 0 0 0 5476 9604 0</Array>
            </PartitionFieldStats>
            <PartitionFieldStats field="NORM_0_1">
              <Counts totalFreq="4" invalidFreq="0" missingFreq="0"/>
              <NumericInfo minimum="0.309864930952836" maximum="0.857496434290659" mean="0.639868109086467" standardDeviation="0.238104256570422"/>
              <Array n="12" type="int"> 0 0 0 0 1 0 0 1 1 1 0 0</Array>
              <Array n="12" type="real"> 0 0 0 0 0.309864930952836 0 0 0.634807385799851 0.757303685302522 0.857496434290659 0 0</Array>
              <Array n="12" type="real"> 0 0 0 0 0.0960162754344058 0 0 0.402980417066041 0.573508871772781 0.735300134821194 0 0</Array>
            </PartitionFieldStats>
            <PartitionFieldStats field="NORM100">
              <Counts totalFreq="4" invalidFreq="0" missingFreq="0"/>
              <NumericInfo minimum="-43.4664690370981" maximum="44.4404954530487" mean="15.2763772361336" standardDeviation="40.7548566278146"/>
              <Array n="8" type="int"> 0 1 0 0 1 0 2 0</Array>
              <Array n="8" type="real"> 0 -43.4664690370981 0 0 19.0168349859383 0 85.5551429956942 0</Array>
              <Array n="8" type="real"> 0 1889.33393055301 0 0 361.640012882407 0 3665.37187866841 0</Array>
            </PartitionFieldStats>
            <PartitionFieldStats field="TARGET_INT100">
              <Counts totalFreq="4" invalidFreq="0" missingFreq="0"/>
              <NumericInfo minimum="-89" maximum="96" mean="36.75" standardDeviation="84.75995516752"/>
              <Array n="10" type="int"> 0 1 0 0 0 0 0 2 1 0</Array>
              <Array n="10" type="real"> 0 -89 0 0 0 0 0 140 96 0</Array>
              <Array n="10" type="real"> 0 7921 0 0 0 0 0 9818 9216 0</Array>
            </PartitionFieldStats>
            <PartitionFieldStats field="TARGET_CONT">
              <Counts totalFreq="4" invalidFreq="0" missingFreq="0"/>
              <NumericInfo minimum="-18.8778254058574" maximum="48.4874092501064" mean="11.219083651071" standardDeviation="27.8285504363309"/>
              <Array n="12" type="int"> 0 0 0 0 1 0 2 0 0 0 1 0</Array>
              <Array n="12" type="real"> 0 0 0 0 -18.8778254058574 0 15.266750760035 0 0 0 48.4874092501064 0</Array>
              <Array n="12" type="real"> 0 0 0 0 356.372292054035 0 119.354862199806 0 0 0 2351.0288557873 0</Array>
            </PartitionFieldStats>
          </Partition>
        </Cluster>
      </Extension>
      <Array n="29" type="real"> 47.5714285714286 0.580180407505833 -4.24026502826397 32.1428571428571 13.3221025740498 0.428571428571429 1 0.857142857142857 1 1 0 0.857142857142857 0.142857142857143 0 1 0.428571428571429 0.142857142857143 0.428571428571429 0.428571428571429 0.142857142857143 0 0.428571428571429 0.142857142857143 0.857142857142857 0 1 0 0.428571428571429 0.571428571428571</Array>
      <Partition name="6" size="7">
        <PartitionFieldStats field="INT_0_1">
          <Counts totalFreq="7" invalidFreq="0" missingFreq="0"/>
          <Array n="2" type="int"> 4 3</Array>
        </PartitionFieldStats>
        <PartitionFieldStats field="CONST1">
          <Counts totalFreq="7" invalidFreq="0" missingFreq="0"/>
          <Array n="1" type="int"> 7</Array>
        </PartitionFieldStats>
        <PartitionFieldStats field="TARGET_0_1">
          <Counts totalFreq="7" invalidFreq="0" missingFreq="0"/>
          <Array n="2" type="int"> 6 1</Array>
        </PartitionFieldStats>
        <PartitionFieldStats field="SGL_VAL">
          <Counts totalFreq="7" invalidFreq="0" missingFreq="0"/>
          <Array n="1" type="int"> 7</Array>
        </PartitionFieldStats>
        <PartitionFieldStats field="BI_VAL">
